{"learner":{"attributes":{"scikit_learn":"{\"_estimator_type\": \"classifier\"}"},"feature_names":[],"feature_types":[],"gradient_booster":{"model":{"gbtree_model_param":{"num_parallel_tree":"1","num_trees":"400"},"iteration_indptr":[0,4,8,12,16,20,24,28,32,36,40,44,48,52,56,60,64,68,72,76,80,84,88,92,96,100,104,108,112,116,120,124,128,132,136,140,144,148,152,156,160,164,168,172,176,180,184,188,192,196,200,204,208,212,216,220,224,228,232,236,240,244,248,252,256,260,264,268,272,276,280,284,288,292,296,300,304,308,312,316,320,324,328,332,336,340,344,348,352,356,360,364,368,372,376,380,384,388,392,396,400],"tree_info":[0,1,2,3,0,1,2,3,0,1,2,3,0,1,2,3,0,1,2,3,0,1,2,3,0,1,2,3,0,1,2,3,0,1,2,3,0,1,2,3,0,1,2,3,0,1,2,3,0,1,2,3,0,1,2,3,0,1,2,3,0,1,2,3,0,1,2,3,0,1,2,3,0,1,2,3,0,1,2,3,0,1,2,3,0,1,2,3,0,1,2,3,0,1,2,3,0,1,2,3,0,1,2,3,0,1,2,3,0,1,2,3,0,1,2,3,0,1,2,3,0,1,2,3,0,1,2,3,0,1,2,3,0,1,2,3,0,1,2,3,0,1,2,3,0,1,2,3,0,1,2,3,0,1,2,3,0,1,2,3,0,1,2,3,0,1,2,3,0,1,2,3,0,1,2,3,0,1,2,3,0,1,2,3,0,1,2,3,0,1,2,3,0,1,2,3,0,1,2,3,0,1,2,3,0,1,2,3,0,1,2,3,0,1,2,3,0,1,2,3,0,1,2,3,0,1,2,3,0,1,2,3,0,1,2,3,0,1,2,3,0,1,2,3,0,1,2,3,0,1,2,3,0,1,2,3,0,1,2,3,0,1,2,3,0,1,2,3,0,1,2,3,0,1,2,3,0,1,2,3,0,1,2,3,0,1,2,3,0,1,2,3,0,1,2,3,0,1,2,3,0,1,2,3,0,1,2,3,0,1,2,3,0,1,2,3,0,1,2,3,0,1,2,3,0,1,2,3,0,1,2,3,0,1,2,3,0,1,2,3,0,1,2,3,0,1,2,3,0,1,2,3,0,1,2,3,0,1,2,3,0,1,2,3,0,1,2,3,0,1,2,3,0,1,2,3,0,1,2,3,0,1,2,3,0,1,2,3,0,1,2,3,0,1,2,3,0,1,2,3],"trees":[{"base_weights":[1.0071942E-1,1.6787565E0,-2.4343406E-1,-6.3013695E-2,1.9089615E0,6.2355064E-2,-6.1265194E-1,1.9590343E0,1.2765957E-1,-3.6451095E-1,4.578791E-1,-5.263158E-2,-6.388255E-1,1.9822878E0,-4.0000003E-2,-5.1428575E-2,1.20000005E-1,-1.6051365E-2,-5.3503186E-1,1.0763209E0,-1.7529881E-1,1.25E-1,-3.75E-1,8E-2,-6.490241E-1,1.988113E-1,5.8823533E-2,6.5868264E-1,-2.5862068E-1,-0E0,-5.915493E-1,3.4101382E-1,1.5973154E0,7.7272725E-1,-3.7320575E-1,-5.546219E-1,1.0588236E-1,-5.2631583E-2,1.20000005E-1,2.6086956E-2,-6.5425533E-1,-0E0,1.5492958E-1,9.787234E-2,-3.9058823E-2,7.9245284E-2,-5.0602414E-2,6.0869563E-2,-6.1195362E-2,1.0898204E-1,-1.2363637E-2,1.9454546E-1,5.8536585E-2,1.4766355E-1,-2.857143E-2,2.7027026E-2,-5.493171E-2,1.1764706E-2,-6.1818182E-2,1.5384616E-2,-6.595318E-2],"categories":[],"categories_nodes":[],"categories_segments":[],"categories_sizes":[],"default_left":[0,0,0,0,0,0,0,0,0,0,0,0,0,0,0,0,0,0,0,0,0,0,0,0,0,0,0,0,0,0,0,0,0,0,0,0,0,0,0,0,0,0,0,0,0,0,0,0,0,0,0,0,0,0,0,0,0,0,0,0,0],"id":0,"left_children":[1,3,5,-1,7,9,11,13,15,17,19,21,23,25,-1,-1,-1,27,29,31,33,-1,35,37,39,-1,-1,41,43,45,47,49,51,53,55,57,-1,-1,-1,-1,59,-1,-1,-1,-1,-1,-1,-1,-1,-1,-1,-1,-1,-1,-1,-1,-1,-1,-1,-1,-1],"loss_changes":[5.854491E2,1.0378607E2,9.998541E1,0E0,1.5425903E1,8.207336E1,5.8459473E0,1.0166443E1,4.6613984E0,1.3888184E1,9.896565E1,8.447369E0,2.8606415E0,2.0593262E-1,0E0,0E0,0E0,1.2916133E1,4.747463E0,4.8395172E1,2.3834814E1,0E0,4.707983E0,4.8757896E0,1.969284E0,0E0,0E0,1.224593E1,9.853055E0,6.817004E0,3.8500977E0,1.901011E1,2.5107483E1,1.6812902E1,1.19907675E1,7.083273E-1,0E0,0E0,0E0,0E0,1.7046967E0,0E0,0E0,0E0,0E0,0E0,0E0,0E0,0E0,0E0,0E0,0E0,0E0,0E0,0E0,0E0,0E0,0E0,0E0,0E0,0E0],"parents":[2147483647,0,0,1,1,2,2,4,4,5,5,6,6,7,7,8,8,9,9,10,10,11,11,12,12,13,13,17,17,18,18,19,19,20,20,22,22,23,23,24,24,27,27,28,28,29,29,30,30,31,31,32,32,33,33,34,34,35,35,40,40],"right_children":[2,4,6,-1,8,10,12,14,16,18,20,22,24,26,-1,-1,-1,28,30,32,34,-1,36,38,40,-1,-1,42,44,46,48,50,52,54,56,58,-1,-1,-1,-1,60,-1,-1,-1,-1,-1,-1,-1,-1,-1,-1,-1,-1,-1,-1,-1,-1,-1,-1,-1,-1],"split_conditions":[1E0,2E0,5E0,-6.3013695E-2,1E0,3E0,5E0,1.62E2,1E0,6.9E1,1E0,6.4E1,1E1,5E0,-4.0000003E-2,-5.1428575E-2,1.20000005E-1,5.7E1,4E1,4E0,2E0,1.25E-1,8E0,7E1,1.9E1,1.988113E-1,5.8823533E-2,6.7E1,1E0,7.2E1,2.8E1,7.7E1,3E0,7.6E1,6E0,1E0,1.0588236E-1,-5.2631583E-2,1.20000005E-1,2.6086956E-2,4E0,-0E0,1.5492958E-1,9.787234E-2,-3.9058823E-2,7.9245284E-2,-5.0602414E-2,6.0869563E-2,-6.1195362E-2,1.0898204E-1,-1.2363637E-2,1.9454546E-1,5.8536585E-2,1.4766355E-1,-2.857143E-2,2.7027026E-2,-5.493171E-2,1.1764706E-2,-6.1818182E-2,1.5384616E-2,-6.595318E-2],"split_indices":[9712,2923,815,0,4623,772,821,14259,19,7509,5251,6996,10146,928,0,0,0,10549,12352,12415,5119,0,2051,8271,7603,0,0,12233,11150,12851,7767,5961,5503,9538,6769,564,0,0,0,0,817,0,0,0,0,0,0,0,0,0,0,0,0,0,0,0,0,0,0,0,0],"split_type":[0,0,0,0,0,0,0,0,0,0,0,0,0,0,0,0,0,0,0,0,0,0,0,0,0,0,0,0,0,0,0,0,0,0,0,0,0,0,0,0,0,0,0,0,0,0,0,0,0,0,0,0,0,0,0,0,0,0,0,0,0],"sum_hessian":[1.07625E3,1.92E2,8.8425E2,1.725E1,1.7475E2,4.84125E2,4.00125E2,1.69875E2,4.875E0,2.32875E2,2.5125E2,1.8E1,3.82125E2,1.68375E2,1.5E0,3.375E0,1.5E0,7.6875E1,1.56E2,1.2675E2,1.245E2,3E0,1.5E1,5.25E0,3.76875E2,1.6725E2,1.125E0,1.9875E1,5.7E1,1.5E1,1.41E2,5.325E1,7.35E1,2.1E1,1.035E2,1.3875E1,1.125E0,3.75E0,1.5E0,1.875E0,3.75E2,1.2E1,7.875E0,4.875E0,5.2125E1,5.625E0,9.375E0,1.875E0,1.39125E2,1.9875E1,3.3375E1,5.4E1,1.95E1,1.2375E1,8.625E0,2.2125E1,8.1375E1,1.125E0,1.275E1,2.25E0,3.7275E2],"tree_param":{"num_deleted":"0","num_feature":"16384","num_nodes":"61","size_leaf_vector":"1"}},{"base_weights":[9.700627E-2,5.9466493E-1,-1.7867436E-1,-5.7705677E-1,1.0482199E0,-3.5236222E-1,2.9411766E-1,-6.404908E-1,4.2857143E-1,1.4545455E0,6.441881E-1,-3.866734E-1,9.0909094E-1,-6.1417323E-1,4.768E-1,5.8823533E-2,-6.600496E-2,1.4482759E-1,-5.1428575E-2,1.6163266E0,1.25E-1,-2.5906736E-1,1.1028037E0,-4.1787943E-1,6.229508E-1,-5.1428575E-2,1.4216868E0,-6.44898E-2,1.1764706E-2,1.1195446E0,8.207934E-3,1.5384616E-1,1.7053088E0,-5.116279E-1,1.2E0,-5.704918E-1,8.3146065E-1,1.3139356E0,-3.0769232E-1,-4.3964154E-1,9.677419E-1,1.4366198E0,-4.4067797E-1,-3.529412E-2,1.6756757E-1,1.380531E0,-4.0963855E-1,-1.4836796E-1,1.6307692E-1,1.3846155E-1,-5.531915E-2,-4.8275862E-2,1.7605321E-1,-5.9740257E-2,1.1764706E-2,1.6097562E-1,-3.529412E-2,-6.486487E-2,1.0588236E-1,-3.4146342E-2,1.5714286E-1,5.494506E-2,1.5824635E-1,7.692308E-2,-6.0465116E-2,-4.5322027E-2,1.4482759E-1,-4.347826E-2,1.4893617E-1,-3.529412E-2,1.7419355E-1,1.1764706E-2,-5.6E-2,1.5544794E-1,-3.8297873E-2,-5.945946E-2,5.8823533E-2,-2.7662957E-2,1.3962264E-1],"categories":[],"categories_nodes":[],"categories_segments":[],"categories_sizes":[],"default_left":[0,0,0,0,0,0,0,0,0,0,0,0,0,0,0,0,0,0,0,0,0,0,0,0,0,0,0,0,0,0,0,0,0,0,0,0,0,0,0,0,0,0,0,0,0,0,0,0,0,0,0,0,0,0,0,0,0,0,0,0,0,0,0,0,0,0,0,0,0,0,0,0,0,0,0,0,0,0,0],"id":1,"left_children":[1,3,5,7,9,11,13,15,17,19,21,23,25,27,29,-1,-1,-1,-1,31,33,35,37,39,41,-1,43,-1,-1,45,47,49,51,53,55,57,59,61,63,65,67,69,71,-1,-1,73,75,77,-1,-1,-1,-1,-1,-1,-1,-1,-1,-1,-1,-1,-1,-1,-1,-1,-1,-1,-1,-1,-1,-1,-1,-1,-1,-1,-1,-1,-1,-1,-1],"loss_changes":[1.478994E2,2.0481078E2,5.709369E1,7.1559525E0,4.4599243E1,2.2338757E1,3.1321508E1,2.8365707E0,7.4748774E0,2.9373566E1,5.8642757E1,1.5863838E1,1.0763386E1,7.897682E-1,4.7050972E1,0E0,0E0,0E0,0E0,1.5679169E1,1.1563953E1,1.6860867E1,2.8285889E1,1.4929558E1,1.3831073E1,0E0,5.2677994E0,0E0,0E0,2.6855972E1,2.3456137E1,7.836334E0,1.4790955E1,6.505234E-1,4.5451937E0,5.541724E0,1.0192265E1,1.5886948E1,4.6225405E0,1.2814018E1,6.317328E0,5.463932E0,5.572084E-1,0E0,0E0,1.7927254E1,2.2646008E0,1.7077188E1,0E0,0E0,0E0,0E0,0E0,0E0,0E0,0E0,0E0,0E0,0E0,0E0,0E0,0E0,0E0,0E0,0E0,0E0,0E0,0E0,0E0,0E0,0E0,0E0,0E0,0E0,0E0,0E0,0E0,0E0,0E0],"parents":[2147483647,0,0,1,1,2,2,3,3,4,4,5,5,6,6,7,7,8,8,9,9,10,10,11,11,12,12,13,13,14,14,19,19,20,20,21,21,22,22,23,23,24,24,26,26,29,29,30,30,31,31,32,32,33,33,34,34,35,35,36,36,37,37,38,38,39,39,40,40,41,41,42,42,45,45,46,46,47,47],"right_children":[2,4,6,8,10,12,14,16,18,20,22,24,26,28,30,-1,-1,-1,-1,32,34,36,38,40,42,-1,44,-1,-1,46,48,50,52,54,56,58,60,62,64,66,68,70,72,-1,-1,74,76,78,-1,-1,-1,-1,-1,-1,-1,-1,-1,-1,-1,-1,-1,-1,-1,-1,-1,-1,-1,-1,-1,-1,-1,-1,-1,-1,-1,-1,-1,-1,-1],"split_conditions":[1.5E1,3E0,8.9E1,5E0,1E0,1.48E2,2E0,1E0,4E0,7.3E1,3E0,1.24E2,7.7E1,3E0,7E0,5.8823533E-2,-6.600496E-2,1.4482759E-1,-5.1428575E-2,4.2E1,1.5E2,4E0,1E1,1.7E2,8.5E1,-5.1428575E-2,7E0,-6.44898E-2,1.1764706E-2,1.47E2,1.47E2,4.3E1,3E0,4E0,6.8E1,1.81E2,5E0,6.8E1,5.7E1,1.69E2,6E1,3E0,1E0,-3.529412E-2,1.6756757E-1,2.2E1,8.2E1,9.6E1,1.6307692E-1,1.3846155E-1,-5.531915E-2,-4.8275862E-2,1.7605321E-1,-5.9740257E-2,1.1764706E-2,1.6097562E-1,-3.529412E-2,-6.486487E-2,1.0588236E-1,-3.4146342E-2,1.5714286E-1,5.494506E-2,1.5824635E-1,7.692308E-2,-6.0465116E-2,-4.5322027E-2,1.4482759E-1,-4.347826E-2,1.4893617E-1,-3.529412E-2,1.7419355E-1,1.1764706E-2,-5.6E-2,1.5544794E-1,-3.8297873E-2,-5.945946E-2,5.8823533E-2,-2.7662957E-2,1.3962264E-1],"split_indices":[2222,6000,7961,11151,10759,13930,8975,14522,957,4506,3457,7215,11195,50,6004,0,0,0,0,6838,4636,7422,12916,4580,8808,0,1849,0,0,11932,2499,7318,7824,566,3000,2754,11396,9937,7064,10462,3627,1325,32,0,0,3858,1476,4233,0,0,0,0,0,0,0,0,0,0,0,0,0,0,0,0,0,0,0,0,0,0,0,0,0,0,0,0,0,0,0],"split_type":[0,0,0,0,0,0,0,0,0,0,0,0,0,0,0,0,0,0,0,0,0,0,0,0,0,0,0,0,0,0,0,0,0,0,0,0,0,0,0,0,0,0,0,0,0,0,0,0,0,0,0,0,0,0,0,0,0,0,0,0,0,0,0,0,0,0,0,0,0,0,0,0,0,0,0,0,0,0,0],"sum_hessian":[1.07625E3,3.8325E2,6.93E2,1.06875E2,2.76375E2,5.07E2,1.86E2,1.00875E2,6E0,1.365E2,1.39875E2,4.9425E2,1.275E1,3.075E1,1.5525E2,1.125E0,9.975E1,2.625E0,3.375E0,1.215E2,1.5E1,4.725E1,9.2625E1,4.8E2,1.425E1,3.375E0,9.375E0,2.9625E1,1.125E0,6.4875E1,9.0375E1,7.125E0,1.14375E2,9.75E0,5.25E0,3.7125E1,1.0125E1,8.0625E1,1.2E1,4.7325E2,6.75E0,7.875E0,6.375E0,1.125E0,8.25E0,5.55E1,9.375E0,8.325E1,7.125E0,2.25E0,4.875E0,2.625E0,1.1175E2,8.625E0,1.125E0,4.125E0,1.125E0,3.6E1,1.125E0,4.125E0,6E0,2.175E1,5.8875E1,2.25E0,9.75E0,4.70625E2,2.625E0,1.875E0,4.875E0,1.125E0,6.75E0,1.125E0,5.25E0,5.0625E1,4.875E0,8.25E0,1.125E0,7.7625E1,5.625E0],"tree_param":{"num_deleted":"0","num_feature":"16384","num_nodes":"79","size_leaf_vector":"1"}},{"base_weights":[-2.9937342E-1,-5.17438E-1,1.2184331E0,1.143469E0,-6.2637675E-1,1.7842324E0,7.561375E-1,1.3969849E0,-2.857143E-1,-6.3864833E-1,1.3191489E0,-0E0,1.8777293E0,9.284404E-1,-5.945946E-2,1.6147308E0,-2.6415095E-1,-5.8823533E-2,1.0588236E-1,-6.4653945E-1,1.4482759E-1,1.5789475E-1,1.1764706E-2,5.8823533E-2,-4.347826E-2,2.6086956E-2,1.9277653E0,1.4153847E0,4.7098976E-1,2.3728813E-1,1.8410596E0,-5.454546E-2,5.8823533E-2,8.965517E-1,-6.5219253E-1,1.1764706E-2,1.9631337E-1,1.5702479E0,-4.6153847E-2,-3.9252338E-1,9.2783505E-1,1.1724138E-1,-5.2631583E-2,1.890785E-1,1.1764706E-2,1.1764706E-2,1.20000005E-1,-6.567463E-2,1.20000005E-1,-2.5E-2,1.7798166E-1,1.0588236E-1,-6.122449E-2,1.2195122E-1,-5.2631583E-2],"categories":[],"categories_nodes":[],"categories_segments":[],"categories_sizes":[],"default_left":[0,0,0,0,0,0,0,0,0,0,0,0,0,0,0,0,0,0,0,0,0,0,0,0,0,0,0,0,0,0,0,0,0,0,0,0,0,0,0,0,0,0,0,0,0,0,0,0,0,0,0,0,0,0,0],"id":2,"left_children":[1,3,5,7,9,11,13,15,17,19,21,23,25,27,-1,29,31,-1,-1,33,-1,-1,-1,-1,-1,-1,35,37,39,41,43,-1,-1,45,47,-1,-1,49,-1,51,53,-1,-1,-1,-1,-1,-1,-1,-1,-1,-1,-1,-1,-1,-1],"loss_changes":[3.5717856E2,1.7127208E2,3.412584E1,2.1549614E1,2.1977509E1,1.0050919E1,1.8327187E1,1.8421387E1,4.537815E0,1.543457E1,1.6481123E0,1.2787724E0,4.1286926E0,1.4508408E1,0E0,1.3319321E1,1.9093937E0,0E0,0E0,8.241547E0,0E0,0E0,0E0,0E0,0E0,0E0,3.314209E0,1.0171394E1,1.4812463E1,5.8832936E0,3.0126343E0,0E0,0E0,7.156186E-1,8.169312E0,0E0,0E0,1.1984322E1,0E0,4.913442E0,1.0927305E1,0E0,0E0,0E0,0E0,0E0,0E0,0E0,0E0,0E0,0E0,0E0,0E0,0E0,0E0],"parents":[2147483647,0,0,1,1,2,2,3,3,4,4,5,5,6,6,7,7,8,8,9,9,10,10,11,11,12,12,13,13,15,15,16,16,19,19,26,26,27,27,28,28,29,29,30,30,33,33,34,34,37,37,39,39,40,40],"right_children":[2,4,6,8,10,12,14,16,18,20,22,24,26,28,-1,30,32,-1,-1,34,-1,-1,-1,-1,-1,-1,36,38,40,42,44,-1,-1,46,48,-1,-1,50,-1,52,54,-1,-1,-1,-1,-1,-1,-1,-1,-1,-1,-1,-1,-1,-1],"split_conditions":[1E0,2E0,2.1E1,1.22E2,5E0,2E1,7.4E1,1.45E2,3.1E1,2.28E2,3E0,2E0,1E1,8E1,-5.945946E-2,6.8E1,1E0,-5.8823533E-2,1.0588236E-1,1E0,1.4482759E-1,1.5789475E-1,1.1764706E-2,5.8823533E-2,-4.347826E-2,2.6086956E-2,1.8E1,1.62E2,9E1,2E0,2.1E2,-5.454546E-2,5.8823533E-2,1E0,2.09E2,1.1764706E-2,1.9631337E-1,4E1,-4.6153847E-2,5.6E1,1.38E2,1.1724138E-1,-5.2631583E-2,1.890785E-1,1.1764706E-2,1.1764706E-2,1.20000005E-1,-6.567463E-2,1.20000005E-1,-2.5E-2,1.7798166E-1,1.0588236E-1,-6.122449E-2,1.2195122E-1,-5.2631583E-2],"split_indices":[8961,1179,1201,7667,16,5566,3085,3656,313,15555,249,61,11559,15280,0,4675,142,0,0,15511,0,0,0,0,0,0,13130,13239,12514,1358,2998,0,0,33,15031,0,0,6850,0,2619,2121,0,0,0,0,0,0,0,0,0,0,0,0,0,0],"split_type":[0,0,0,0,0,0,0,0,0,0,0,0,0,0,0,0,0,0,0,0,0,0,0,0,0,0,0,0,0,0,0,0,0,0,0,0,0,0,0,0,0,0,0,0,0,0,0,0,0,0,0,0,0,0,0],"sum_hessian":[1.07625E3,9.41625E2,1.34625E2,5.7375E1,8.8425E2,5.925E1,7.5375E1,4.875E1,8.625E0,8.79375E2,4.875E0,3E0,5.625E1,6.7125E1,8.25E0,4.3125E1,5.625E0,7.5E0,1.125E0,8.7675E2,2.625E0,3.75E0,1.125E0,1.125E0,1.875E0,1.875E0,5.4375E1,3.15E1,3.5625E1,6.375E0,3.675E1,4.5E0,1.125E0,2.625E0,8.74125E2,1.125E0,5.325E1,2.925E1,2.25E0,1.2375E1,2.325E1,2.625E0,3.75E0,3.5625E1,1.125E0,1.125E0,1.5E0,8.72625E2,1.5E0,3E0,2.625E1,1.125E0,1.125E1,1.95E1,3.75E0],"tree_param":{"num_deleted":"0","num_feature":"16384","num_nodes":"55","size_leaf_vector":"1"}},{"base_weights":[1.0164771E-1,-4.3632168E-1,9.171529E-1,-5.059856E-1,1.3814433E0,1.2785455E0,-5.4227406E-1,4.9056605E-1,-5.4908484E-1,-5.2631583E-2,1.7560976E0,-2.6835442E-1,1.5327973E0,-6.219512E-1,9.4736844E-1,-4.0707964E-1,1.4018692E0,-6.1945134E-1,-1.9354838E-1,-3.529412E-2,1.8967742E-1,1.2195122E0,-4.3093923E-1,5.102041E-1,1.7291561E0,5.8823533E-2,-6.4605874E-1,1.4482759E-1,-3.529412E-2,1.0588236E-1,-6.1538465E-2,-2.0689656E-1,1.8139535E-1,-6.46491E-1,-3.2432433E-2,5.1301116E-1,-5.394495E-1,1.1764706E-2,1.5E-1,1.07692316E-1,-5.3488374E-1,-8.264463E-2,1.392405E0,1.7838961E0,-1.9354838E-1,-6.583072E-2,1.1764706E-2,1.1764706E-2,-4.0000003E-2,-6.506276E-2,5.8823533E-2,9.189189E-2,-6.2184878E-2,-6.593407E-3,1.5789475E-1,7.692308E-2,-5.9582543E-2,-6.261399E-2,9.565218E-2,1.4893617E-1,-4.4334974E-2,1.816794E-1,-5.1428575E-2,-5E-2,1.8148343E-1,1.0588236E-1,-5.660377E-2],"categories":[],"categories_nodes":[],"categories_segments":[],"categories_sizes":[],"default_left":[0,0,0,0,0,0,0,0,0,0,0,0,0,0,0,0,0,0,0,0,0,0,0,0,0,0,0,0,0,0,0,0,0,0,0,0,0,0,0,0,0,0,0,0,0,0,0,0,0,0,0,0,0,0,0,0,0,0,0,0,0,0,0,0,0,0,0],"id":3,"left_children":[1,3,5,7,9,11,13,15,17,-1,19,21,23,25,27,29,31,33,35,-1,-1,37,39,41,43,-1,45,-1,-1,-1,-1,47,-1,49,51,53,55,-1,-1,-1,57,59,61,63,65,-1,-1,-1,-1,-1,-1,-1,-1,-1,-1,-1,-1,-1,-1,-1,-1,-1,-1,-1,-1,-1,-1],"loss_changes":[4.730078E2,8.297861E1,2.266954E2,2.7177917E1,1.825695E1,1.3560901E2,1.0766926E1,2.2248398E1,1.4915848E1,0E0,6.751648E0,1.2469568E1,5.8427673E1,2.7723503E0,3.6049967E0,4.9647217E0,9.24222E0,7.935257E0,2.490002E1,0E0,0E0,1.4074602E0,7.6682415E0,2.5742647E1,2.6381226E1,0E0,8.339691E-1,0E0,0E0,0E0,0E0,2.7423936E-1,0E0,2.829895E0,1.3538588E1,2.0854721E1,5.484455E0,0E0,0E0,0E0,6.451209E0,1.7812988E1,1.6915623E1,1.7909851E1,4.2146716E0,0E0,0E0,0E0,0E0,0E0,0E0,0E0,0E0,0E0,0E0,0E0,0E0,0E0,0E0,0E0,0E0,0E0,0E0,0E0,0E0,0E0,0E0],"parents":[2147483647,0,0,1,1,2,2,3,3,4,4,5,5,6,6,7,7,8,8,10,10,11,11,12,12,13,13,14,14,15,15,16,16,17,17,18,18,21,21,22,22,23,23,24,24,26,26,31,31,33,33,34,34,35,35,36,36,40,40,41,41,42,42,43,43,44,44],"right_children":[2,4,6,8,10,12,14,16,18,-1,20,22,24,26,28,30,32,34,36,-1,-1,38,40,42,44,-1,46,-1,-1,-1,-1,48,-1,50,52,54,56,-1,-1,-1,58,60,62,64,66,-1,-1,-1,-1,-1,-1,-1,-1,-1,-1,-1,-1,-1,-1,-1,-1,-1,-1,-1,-1,-1,-1],"split_conditions":[5E0,2.2E1,1E0,2E1,2.5E1,1.2E1,7E1,4E0,3.8E1,-5.2631583E-2,1E0,1.2E1,8E0,1E0,1.9E1,3.7E1,6.8E1,1.49E2,6.8E1,-3.529412E-2,1.8967742E-1,5E0,3.3E1,6E0,5.8E1,5.8823533E-2,1.65E2,1.4482759E-1,-3.529412E-2,1.0588236E-1,-6.1538465E-2,1E0,1.8139535E-1,2.03E2,7.7E1,9.2E1,2.1E1,1.1764706E-2,1.5E-1,1.07692316E-1,1.52E2,2.1E1,7.3E1,1.4E1,4.8E1,-6.583072E-2,1.1764706E-2,1.1764706E-2,-4.0000003E-2,-6.506276E-2,5.8823533E-2,9.189189E-2,-6.2184878E-2,-6.593407E-3,1.5789475E-1,7.692308E-2,-5.9582543E-2,-6.261399E-2,9.565218E-2,1.4893617E-1,-4.4334974E-2,1.816794E-1,-5.1428575E-2,-5E-2,1.8148343E-1,1.0588236E-1,-5.660377E-2],"split_indices":[1643,13443,8449,5178,15717,4377,14076,2193,4884,0,3457,10299,10480,8450,166,5799,12004,13403,12124,0,0,839,8266,684,16326,0,225,0,0,0,0,538,0,12261,6965,12959,14159,0,0,0,11288,2748,13666,2350,3033,0,0,0,0,0,0,0,0,0,0,0,0,0,0,0,0,0,0,0,0,0,0],"split_type":[0,0,0,0,0,0,0,0,0,0,0,0,0,0,0,0,0,0,0,0,0,0,0,0,0,0,0,0,0,0,0,0,0,0,0,0,0,0,0,0,0,0,0,0,0,0,0,0,0,0,0,0,0,0,0,0,0,0,0,0,0,0,0,0,0,0,0],"sum_hessian":[1.07625E3,6.4875E2,4.275E2,6.255E2,2.325E1,3.4275E2,8.475E1,2.55E1,6E2,3.75E0,1.95E1,4.8375E1,2.94375E2,8.1E1,3.75E0,1.3125E1,1.2375E1,5.0025E2,9.975E1,1.125E0,1.8375E1,4.125E0,4.425E1,4.8E1,2.46375E2,1.125E0,7.9875E1,2.625E0,1.125E0,1.125E0,1.2E1,2.625E0,9.75E0,4.78125E2,2.2125E1,3.2625E1,6.7125E1,1.125E0,3E0,2.25E0,4.2E1,2.925E1,1.875E1,2.39625E2,6.75E0,7.875E1,1.125E0,1.125E0,1.5E0,4.77E2,1.125E0,8.25E0,1.3875E1,2.175E1,1.0875E1,2.25E0,6.4875E1,4.0125E1,1.875E0,4.875E0,2.4375E1,1.5375E1,3.375E0,3E0,2.36625E2,1.125E0,5.625E0],"tree_param":{"num_deleted":"0","num_feature":"16384","num_nodes":"67","size_leaf_vector":"1"}},{"base_weights":[9.321078E-2,1.4123709E0,-2.3190725E-1,-6.1544705E-2,1.5884695E0,5.8585264E-2,-5.992581E-1,1.6257336E0,1.1451339E-1,-2.98791E-1,4.719168E-1,-3.1084356E-1,-6.470912E-1,1.6435517E0,-3.96163E-2,-5.0638087E-2,1.0856419E-1,-3.856655E-1,2.8873262E-1,1.3416731E0,-8.889148E-2,-4.7570866E-1,5.355077E-1,1.3128347E-2,-6.5010674E-2,5.0059028E-2,1.6483991E-1,1.0584933E0,-4.160001E-1,8.961566E-1,-6.100309E-2,1.5968835E0,1.82775E-1,8.505206E-1,-2.6374924E-1,6.164883E-1,-5.733001E-1,1.4983705E-1,-5.31829E-2,1.3131891E-1,1.074212E-2,5.818185E-3,-5.065889E-2,1.3984177E-1,-5.488955E-2,1.6448079E-1,-4.004046E-2,-4.416105E-2,1.2726949E-1,1.20637774E-1,-5.40159E-2,1.1614599E-1,-3.424492E-2,1.2251475E-1,-3.8306244E-2,7.507622E-2,-6.3929096E-2],"categories":[],"categories_nodes":[],"categories_segments":[],"categories_sizes":[],"default_left":[0,0,0,0,0,0,0,0,0,0,0,0,0,0,0,0,0,0,0,0,0,0,0,0,0,0,0,0,0,0,0,0,0,0,0,0,0,0,0,0,0,0,0,0,0,0,0,0,0,0,0,0,0,0,0,0,0],"id":4,"left_children":[1,3,5,-1,7,9,11,13,15,17,19,21,23,25,-1,-1,-1,27,29,31,33,35,37,-1,-1,-1,-1,39,41,43,-1,45,47,49,51,53,55,-1,-1,-1,-1,-1,-1,-1,-1,-1,-1,-1,-1,-1,-1,-1,-1,-1,-1,-1,-1],"loss_changes":[4.6379544E2,7.732919E1,9.264328E1,0E0,1.0634644E1,7.18596E1,5.0868683E0,7.5707703E0,4.12755E0,1.3432886E1,1.1012178E2,8.1317005E0,8.548889E-1,2.3077393E-1,0E0,0E0,0E0,1.0419983E1,1.9213686E1,2.5874664E1,2.2901155E1,5.4460297E0,1.07389965E1,0E0,0E0,0E0,0E0,1.06253E0,9.644466E0,1.587023E1,0E0,7.586258E0,1.2196426E1,1.1489859E1,1.3537851E1,3.1466846E0,4.357436E0,0E0,0E0,0E0,0E0,0E0,0E0,0E0,0E0,0E0,0E0,0E0,0E0,0E0,0E0,0E0,0E0,0E0,0E0,0E0,0E0],"parents":[2147483647,0,0,1,1,2,2,4,4,5,5,6,6,7,7,8,8,9,9,10,10,11,11,12,12,13,13,17,17,18,18,19,19,20,20,21,21,22,22,27,27,28,28,29,29,31,31,32,32,33,33,34,34,35,35,36,36],"right_children":[2,4,6,-1,8,10,12,14,16,18,20,22,24,26,-1,-1,-1,28,30,32,34,36,38,-1,-1,-1,-1,40,42,44,-1,46,48,50,52,54,56,-1,-1,-1,-1,-1,-1,-1,-1,-1,-1,-1,-1,-1,-1,-1,-1,-1,-1,-1,-1],"split_conditions":[1E0,2E0,5E0,-6.1544705E-2,1E0,3E0,6E0,1.62E2,1E0,1.24E2,1E0,8E0,6E0,2E0,-3.96163E-2,-5.0638087E-2,1.0856419E-1,4E0,8.6E1,2E0,1E0,3.2E1,7E1,1.3128347E-2,-6.5010674E-2,5.0059028E-2,1.6483991E-1,4E0,4.1E1,1.7E1,-6.100309E-2,1.15E2,9.2E1,8.4E1,2.3E1,6.1E1,2.4E1,1.4983705E-1,-5.31829E-2,1.3131891E-1,1.074212E-2,5.818185E-3,-5.065889E-2,1.3984177E-1,-5.488955E-2,1.6448079E-1,-4.004046E-2,-4.416105E-2,1.2726949E-1,1.20637774E-1,-5.40159E-2,1.1614599E-1,-3.424492E-2,1.2251475E-1,-3.8306244E-2,7.507622E-2,-6.3929096E-2],"split_indices":[8432,2582,815,0,4623,1024,1569,14259,19,8725,3713,16366,9883,1729,0,0,0,13104,4426,6399,6526,8403,8494,0,0,0,0,690,11455,6251,0,5200,8607,9543,11982,1339,10443,0,0,0,0,0,0,0,0,0,0,0,0,0,0,0,0,0,0,0,0],"split_type":[0,0,0,0,0,0,0,0,0,0,0,0,0,0,0,0,0,0,0,0,0,0,0,0,0,0,0,0,0,0,0,0,0,0,0,0,0,0,0,0,0,0,0,0,0,0,0,0,0,0,0,0,0,0,0,0,0],"sum_hessian":[1.07964E3,2.1281265E2,8.668274E2,1.6804924E1,1.9600772E2,4.8452042E2,3.8230698E2,1.9107407E2,4.933651E0,2.5999753E2,2.2452292E2,5.545196E1,3.26855E2,1.8959042E2,1.48365E0,3.3014328E0,1.632218E0,2.268045E2,3.3193E1,8.747137E1,1.3705154E2,4.6777805E1,8.674158E0,1.0972348E0,3.2575778E2,1.2410121E0,1.8834941E2,3.9687264E0,2.2283578E2,1.9808468E1,1.3384535E1,7.1375305E1,1.6096067E1,2.0900562E1,1.16150986E2,3.4007888E0,4.3377014E1,4.347954E0,4.3262043E0,2.8300872E0,1.1386392E0,3.580007E1,1.870357E2,1.4723314E1,5.0851536E0,6.987515E1,1.5001525E0,1.0611723E1,5.4843445E0,1.6747593E1,4.152969E0,5.358247E0,1.1079274E2,1.9734142E0,1.4273746E0,1.5666392E0,4.1810375E1],"tree_param":{"num_deleted":"0","num_feature":"16384","num_nodes":"57","size_leaf_vector":"1"}},{"base_weights":[9.0846434E-2,5.352417E-1,-1.6786216E-1,-5.6014156E-1,9.164645E-1,-3.3647978E-1,2.731815E-1,-6.24794E-1,4.0106487E-1,1.0397339E0,8.58679E-3,-4.0971178E-1,2.2291778E-1,-5.98043E-1,4.3652794E-1,5.5922717E-2,-6.449673E-2,1.2868337E-1,-5.0075572E-2,1.3778245E0,7.8184503E-1,-2.8406835E-1,8.8918954E-1,3.7710953E-1,-4.477794E-1,5.9929204E-1,-3.4083486E-1,-6.3002385E-2,1.3809212E-2,9.8326206E-1,1.0245993E-2,-4.860914E-2,1.4319295E0,-6.730431E-2,9.505254E-1,-4.4351912E-1,1.1658754E-1,-4.5048494E-2,1.362451E-1,-3.4282777E-1,1.1597826E0,-4.7657207E-1,6.465366E-1,1.3316365E0,1.7447847E-1,-5.790847E-1,1.066968E-1,1.1955214E0,-3.9559695E-1,-1.4602196E-1,1.3536915E0,-2.4525804E-2,1.4815204E-1,-3.986051E-2,1.12406485E-1,1.06410936E-1,-5.495531E-4,-5.8920365E-2,8.595661E-2,-5.9274387E-2,1.0153595E-1,-4.4851825E-2,1.6518176E-1,-4.902865E-2,1.381056E-1,-5.036329E-2,1.1893483E-1,1.5823208E-1,-3.8358208E-2,-4.5192596E-2,8.7331414E-2,-6.2390186E-2,1.0958156E-2,1.3335654E-1,-3.686998E-2,-5.827288E-2,5.696397E-2,-2.723579E-2,1.239766E-1,8.625329E-3,1.5215646E-1],"categories":[],"categories_nodes":[],"categories_segments":[],"categories_sizes":[],"default_left":[0,0,0,0,0,0,0,0,0,0,0,0,0,0,0,0,0,0,0,0,0,0,0,0,0,0,0,0,0,0,0,0,0,0,0,0,0,0,0,0,0,0,0,0,0,0,0,0,0,0,0,0,0,0,0,0,0,0,0,0,0,0,0,0,0,0,0,0,0,0,0,0,0,0,0,0,0,0,0,0,0],"id":5,"left_children":[1,3,5,7,9,11,13,15,17,19,21,23,25,27,29,-1,-1,-1,-1,31,33,35,37,39,41,43,45,-1,-1,47,49,-1,51,53,55,57,-1,-1,-1,59,61,63,65,67,69,71,-1,73,75,77,79,-1,-1,-1,-1,-1,-1,-1,-1,-1,-1,-1,-1,-1,-1,-1,-1,-1,-1,-1,-1,-1,-1,-1,-1,-1,-1,-1,-1,-1,-1],"loss_changes":[1.2428465E2,1.6659445E2,5.0924435E1,6.670185E0,3.30522E1,2.0366512E1,2.7243258E1,2.6819382E0,6.3313875E0,2.1600128E1,9.613796E0,1.3287712E1,1.2498024E1,8.016834E-1,3.7336426E1,0E0,0E0,0E0,0E0,1.1913681E1,2.152893E1,6.9954886E0,6.5118575E0,1.2092838E1,1.348597E1,1.0689616E1,8.611759E0,0E0,0E0,2.1016472E1,1.9312477E1,0E0,9.375122E0,1.0619221E1,1.3589127E1,5.436514E0,0E0,0E0,0E0,4.533463E0,8.790884E0,1.1073692E1,7.5580006E0,6.083761E0,1.0624546E1,7.174959E-1,0E0,1.3680122E1,2.1590164E0,1.4775267E1,1.9080715E0,0E0,0E0,0E0,0E0,0E0,0E0,0E0,0E0,0E0,0E0,0E0,0E0,0E0,0E0,0E0,0E0,0E0,0E0,0E0,0E0,0E0,0E0,0E0,0E0,0E0,0E0,0E0,0E0,0E0,0E0],"parents":[2147483647,0,0,1,1,2,2,3,3,4,4,5,5,6,6,7,7,8,8,9,9,10,10,11,11,12,12,13,13,14,14,19,19,20,20,21,21,22,22,23,23,24,24,25,25,26,26,29,29,30,30,32,32,33,33,34,34,35,35,39,39,40,40,41,41,42,42,43,43,44,44,45,45,47,47,48,48,49,49,50,50],"right_children":[2,4,6,8,10,12,14,16,18,20,22,24,26,28,30,-1,-1,-1,-1,32,34,36,38,40,42,44,46,-1,-1,48,50,-1,52,54,56,58,-1,-1,-1,60,62,64,66,68,70,72,-1,74,76,78,80,-1,-1,-1,-1,-1,-1,-1,-1,-1,-1,-1,-1,-1,-1,-1,-1,-1,-1,-1,-1,-1,-1,-1,-1,-1,-1,-1,-1,-1,-1],"split_conditions":[1.5E1,3E0,8.9E1,5E0,1.1E1,9.4E1,2E0,1E0,4E0,1.4E1,1.12E2,2.7E1,8.7E1,1.67E2,7E0,5.5922717E-2,-6.449673E-2,1.2868337E-1,-5.0075572E-2,1.4E1,4.8E1,5.5E1,9.5E1,6.5E1,1.57E2,8.3E1,1.27E2,-6.3002385E-2,1.3809212E-2,1.47E2,1.46E2,-4.860914E-2,3E0,8.3E1,1.01E2,1.34E2,1.1658754E-1,-4.5048494E-2,1.362451E-1,7.4E1,4.3E1,1.66E2,1E0,1.23E2,9.4E1,1.58E2,1.066968E-1,2.2E1,1.62E2,1.02E2,7.1E1,-2.4525804E-2,1.4815204E-1,-3.986051E-2,1.12406485E-1,1.06410936E-1,-5.495531E-4,-5.8920365E-2,8.595661E-2,-5.9274387E-2,1.0153595E-1,-4.4851825E-2,1.6518176E-1,-4.902865E-2,1.381056E-1,-5.036329E-2,1.1893483E-1,1.5823208E-1,-3.8358208E-2,-4.5192596E-2,8.7331414E-2,-6.2390186E-2,1.0958156E-2,1.3335654E-1,-3.686998E-2,-5.827288E-2,5.696397E-2,-2.723579E-2,1.239766E-1,8.625329E-3,1.5215646E-1],"split_indices":[2222,6000,7961,11151,3046,6961,8975,14522,957,7574,9586,10958,13764,1344,6004,0,0,0,0,9549,13364,3104,11884,13907,4322,7612,1088,0,0,11932,2499,0,6928,8650,8144,7717,0,0,0,4975,11714,4642,5233,2093,8118,2883,0,3858,1857,5636,2094,0,0,0,0,0,0,0,0,0,0,0,0,0,0,0,0,0,0,0,0,0,0,0,0,0,0,0,0,0,0],"split_type":[0,0,0,0,0,0,0,0,0,0,0,0,0,0,0,0,0,0,0,0,0,0,0,0,0,0,0,0,0,0,0,0,0,0,0,0,0,0,0,0,0,0,0,0,0,0,0,0,0,0,0,0,0,0,0,0,0,0,0,0,0,0,0,0,0,0,0,0,0,0,0,0,0,0,0,0,0,0,0,0,0],"sum_hessian":[1.0792472E3,3.9671802E2,6.825292E2,1.02301506E2,2.944165E2,4.9392953E2,1.8859962E2,9.618212E1,6.119386E0,2.5909235E2,3.532416E1,4.369898E2,5.693972E1,2.9357466E1,1.5924216E2,1.1636479E0,9.501847E1,2.8717866E0,3.2475996E0,1.10233826E2,1.4885852E2,2.7021414E1,8.302747E0,1.9755527E1,4.1723428E2,3.4106438E1,2.2833284E1,2.82733E1,1.0841651E0,6.9192154E1,9.005E1,2.8843324E0,1.07349495E2,2.4769255E1,1.2408927E2,2.496961E1,2.0518026E0,2.1799703E0,6.122776E0,1.0582893E1,9.172634E0,4.0708786E2,1.0146437E1,1.1737423E1,2.2369015E1,2.0031849E1,2.8014345E0,6.007697E1,9.115186E0,8.146536E1,8.584644E0,2.9696255E0,1.0437987E2,1.9900629E1,4.868625E0,1.10810875E2,1.3278398E1,2.295148E1,2.018129E0,9.414192E0,1.168701E0,2.1695445E0,7.0030894E0,4.048351E2,2.2527359E0,3.276341E0,6.8700957E0,1.0308315E1,1.429108E0,1.1982112E1,1.0386904E1,1.8896166E1,1.1356841E0,5.5340565E1,4.736404E0,7.9669127E0,1.1482728E0,7.539537E1,6.069987E0,1.1811076E0,7.4035363E0],"tree_param":{"num_deleted":"0","num_feature":"16384","num_nodes":"81","size_leaf_vector":"1"}},{"base_weights":[-2.8552428E-1,-5.036452E-1,1.0438217E0,1.0285419E0,-6.119674E-1,1.4882749E0,6.593525E-1,1.2508626E0,-2.810974E-1,-6.2914056E-1,1.2095522E0,-4.5668546E-2,1.5606812E0,9.2187923E-1,-1.5628524E-2,1.3777326E0,-3.092019E-1,-5.7950657E-2,9.533625E-2,-6.3494605E-1,1.1770284E-1,1.4948995E-1,-3.432123E-2,-3.5793617E-2,1.6000024E0,1.1189159E0,-1.8979287E-1,-4.5551533E-1,1.0200056E0,1.4913446E0,-7.217057E-2,-4.752044E-2,1.1485702E-2,1.1310637E-1,-6.3964003E-1,4.0261868E-1,1.6391342E0,-3.614837E-1,1.2721354E0,1.0745262E-1,-5.818386E-2,5.567776E-2,-6.20488E-2,1.4279014E-1,-3.881334E-2,1.5661184E-1,-3.9846294E-2,-4.6040025E-2,5.330212E-2,-6.443262E-2,1.0879078E-1,9.288291E-2,-3.500509E-2,5.2708417E-2,1.6523767E-1,-5.15714E-2,1.3278492E-2,1.4082225E-1,-4.9968135E-2],"categories":[],"categories_nodes":[],"categories_segments":[],"categories_sizes":[],"default_left":[0,0,0,0,0,0,0,0,0,0,0,0,0,0,0,0,0,0,0,0,0,0,0,0,0,0,0,0,0,0,0,0,0,0,0,0,0,0,0,0,0,0,0,0,0,0,0,0,0,0,0,0,0,0,0,0,0,0,0],"id":6,"left_children":[1,3,5,7,9,11,13,15,17,19,21,-1,23,25,27,29,31,-1,-1,33,-1,-1,-1,-1,35,37,39,41,43,45,47,-1,-1,-1,49,51,53,55,57,-1,-1,-1,-1,-1,-1,-1,-1,-1,-1,-1,-1,-1,-1,-1,-1,-1,-1,-1,-1],"loss_changes":[3.0558664E2,1.5074335E2,2.441478E1,1.7848728E1,2.7205292E1,1.0308365E1,1.4453266E1,1.063044E1,4.0658593E0,9.535767E0,4.163063E0,0E0,5.545746E0,1.3066162E1,1.1307338E1,7.9918976E0,3.8502634E-1,0E0,0E0,7.654358E0,0E0,0E0,0E0,0E0,2.375229E0,1.1799416E1,5.4282947E0,3.2506979E0,4.807036E0,6.9024963E0,1.2866609E0,0E0,0E0,0E0,7.456909E0,1.6620872E0,4.801941E-2,4.8527867E-1,1.1680649E1,0E0,0E0,0E0,0E0,0E0,0E0,0E0,0E0,0E0,0E0,0E0,0E0,0E0,0E0,0E0,0E0,0E0,0E0,0E0,0E0],"parents":[2147483647,0,0,1,1,2,2,3,3,4,4,5,5,6,6,7,7,8,8,9,9,10,10,12,12,13,13,14,14,15,15,16,16,19,19,24,24,25,25,26,26,27,27,28,28,29,29,30,30,34,34,35,35,36,36,37,37,38,38],"right_children":[2,4,6,8,10,12,14,16,18,20,22,-1,24,26,28,30,32,-1,-1,34,-1,-1,-1,-1,36,38,40,42,44,46,48,-1,-1,-1,50,52,54,56,58,-1,-1,-1,-1,-1,-1,-1,-1,-1,-1,-1,-1,-1,-1,-1,-1,-1,-1,-1,-1],"split_conditions":[1E0,2E0,2.1E1,1.59E2,6E0,2E1,7.9E1,2E0,2.37E2,2.21E2,3.7E1,-4.5668546E-2,1.4E1,1.37E2,1.41E2,1.47E2,2E0,-5.7950657E-2,9.533625E-2,1E0,1.1770284E-1,1.4948995E-1,-3.432123E-2,-3.5793617E-2,2.4E1,3.4E1,2.5E1,5.9E1,3.7E1,1.45E2,2E0,-4.752044E-2,1.1485702E-2,1.1310637E-1,2.08E2,6E0,7E0,9.4E1,5E1,1.0745262E-1,-5.818386E-2,5.567776E-2,-6.20488E-2,1.4279014E-1,-3.881334E-2,1.5661184E-1,-3.9846294E-2,-4.6040025E-2,5.330212E-2,-6.443262E-2,1.0879078E-1,9.288291E-2,-3.500509E-2,5.2708417E-2,1.6523767E-1,-5.15714E-2,1.3278492E-2,1.4082225E-1,-4.9968135E-2],"split_indices":[8449,1431,1201,10894,26,5823,15520,2291,3816,12828,592,0,10180,2115,12378,5927,490,0,0,1065,0,0,0,0,13502,2388,1094,3015,1176,12091,1233,0,0,0,14899,129,10816,1208,14214,0,0,0,0,0,0,0,0,0,0,0,0,0,0,0,0,0,0,0,0],"split_type":[0,0,0,0,0,0,0,0,0,0,0,0,0,0,0,0,0,0,0,0,0,0,0,0,0,0,0,0,0,0,0,0,0,0,0,0,0,0,0,0,0,0,0,0,0,0,0,0,0,0,0,0,0,0,0,0,0,0,0],"sum_hessian":[1.0510858E3,9.0346515E2,1.4762067E2,5.9094505E1,8.4437067E2,6.713753E1,8.048315E1,5.0556976E1,8.537531E0,8.371328E2,7.237833E0,2.2191768E0,6.491835E1,5.76824E1,2.2800747E1,4.6862797E1,3.6941772E0,7.3027716E0,1.2347592E0,8.3509705E2,2.0357687E0,6.145717E0,1.0921158E0,1.1410228E0,6.377733E1,4.8992313E1,8.690087E0,1.639648E1,6.404267E0,4.3431034E1,3.4317632E0,2.568213E0,1.1259643E0,1.5776423E0,8.335194E2,2.3756025E0,6.1401726E1,4.4675727E0,4.452474E1,1.6448255E0,7.0452614E0,1.9648631E0,1.4431618E1,4.954935E0,1.4493315E0,4.1942772E1,1.4882629E0,2.2363784E0,1.1953846E0,8.3188983E2,1.6295712E0,1.2603873E0,1.1152152E0,1.2027466E0,6.019898E1,3.3719954E0,1.0955771E0,4.153945E1,2.9852889E0],"tree_param":{"num_deleted":"0","num_feature":"16384","num_nodes":"59","size_leaf_vector":"1"}},{"base_weights":[9.3959555E-2,-4.4024032E-1,7.834827E-1,-5.060138E-1,1.0133009E0,1.0534039E0,-5.581616E-1,4.4556606E-1,-5.4531014E-1,-5.5131268E-2,1.4093877E0,2.7304936E-2,1.3278815E0,-6.3092434E-1,9.001996E-1,-4.2806083E-1,1.179547E0,-5.6812906E-1,6.001343E-1,1.607599E-1,-4.3692067E-2,-2.5300303E-1,1.3025107E0,1.4084456E0,-1.160727E-1,-6.438218E-2,1.401089E-2,1.1671322E-1,1.0291235E-2,-5.922531E-2,5.6106415E-2,1.4827599E-1,-4.3157987E-2,-6.186763E-1,-2.3296717E-1,-5.2217968E-2,1.2631751E0,-4.6805775E-1,1.0284269E0,-4.1929573E-2,1.5621553E-1,1.4484249E0,-4.322995E-1,-6.147479E-2,1.3307098E-1,-6.2477347E-2,7.624838E-2,9.713082E-2,-5.1392674E-2,1.0896435E-2,1.4525537E-1,1.06715225E-1,-5.2944135E-2,1.5636346E-1,-4.6507955E-2,-9.513073E-3,1.4870912E-1,-5.555836E-2,1.1018979E-2],"categories":[],"categories_nodes":[],"categories_segments":[],"categories_sizes":[],"default_left":[0,0,0,0,0,0,0,0,0,0,0,0,0,0,0,0,0,0,0,0,0,0,0,0,0,0,0,0,0,0,0,0,0,0,0,0,0,0,0,0,0,0,0,0,0,0,0,0,0,0,0,0,0,0,0,0,0,0,0],"id":7,"left_children":[1,3,5,7,9,11,13,15,17,-1,19,21,23,25,27,29,31,33,35,-1,-1,37,39,41,43,-1,-1,-1,-1,-1,-1,-1,-1,45,47,-1,49,51,53,-1,-1,55,57,-1,-1,-1,-1,-1,-1,-1,-1,-1,-1,-1,-1,-1,-1,-1,-1],"loss_changes":[3.9837427E2,5.8785156E1,1.7154568E2,2.207315E1,1.7335962E1,1.10749176E2,9.027618E0,1.5703604E1,1.5006744E1,0E0,8.608334E0,3.0368282E1,3.6263367E1,8.5116005E-1,7.7387977E-1,2.2089887E0,7.062439E0,9.184647E0,9.176867E0,0E0,0E0,1.969737E1,7.497753E0,2.226184E1,1.3316119E1,0E0,0E0,0E0,0E0,0E0,0E0,0E0,0E0,4.500656E0,2.5458231E1,0E0,1.4783745E0,6.2565613E0,8.987092E0,0E0,0E0,1.732904E1,5.3070307E-1,0E0,0E0,0E0,0E0,0E0,0E0,0E0,0E0,0E0,0E0,0E0,0E0,0E0,0E0,0E0,0E0],"parents":[2147483647,0,0,1,1,2,2,3,3,4,4,5,5,6,6,7,7,8,8,10,10,11,11,12,12,13,13,14,14,15,15,16,16,17,17,18,18,21,21,22,22,23,23,24,24,33,33,34,34,36,36,37,37,38,38,41,41,42,42],"right_children":[2,4,6,8,10,12,14,16,18,-1,20,22,24,26,28,30,32,34,36,-1,-1,38,40,42,44,-1,-1,-1,-1,-1,-1,-1,-1,46,48,-1,50,52,54,-1,-1,56,58,-1,-1,-1,-1,-1,-1,-1,-1,-1,-1,-1,-1,-1,-1,-1,-1],"split_conditions":[5E0,1.6E1,2E0,1.8E1,3.3E1,1.9E1,1.03E2,9.2E1,6E0,-5.5131268E-2,1.02E2,5E0,1.01E2,2.52E2,3.1E1,1.33E2,1.07E2,8.7E1,6.4E1,1.607599E-1,-4.3692067E-2,1.25E2,6E1,1.04E2,3.1E1,-6.438218E-2,1.401089E-2,1.1671322E-1,1.0291235E-2,-5.922531E-2,5.6106415E-2,1.4827599E-1,-4.3157987E-2,1.1E1,5E0,-5.2217968E-2,2.3E1,1E1,8.3E1,-4.1929573E-2,1.5621553E-1,8E0,1.22E2,-6.147479E-2,1.3307098E-1,-6.2477347E-2,7.624838E-2,9.713082E-2,-5.1392674E-2,1.0896435E-2,1.4525537E-1,1.06715225E-1,-5.2944135E-2,1.5636346E-1,-4.6507955E-2,-9.513073E-3,1.4870912E-1,-5.555836E-2,1.1018979E-2],"split_indices":[1772,13828,6017,5178,6257,4885,14075,12060,1646,0,10558,16001,8609,8444,63,4258,7994,3358,10583,0,0,7614,3524,6606,197,0,0,0,0,0,0,0,0,14850,14370,0,1360,5693,7457,0,0,14657,3241,0,0,0,0,0,0,0,0,0,0,0,0,0,0,0,0],"split_type":[0,0,0,0,0,0,0,0,0,0,0,0,0,0,0,0,0,0,0,0,0,0,0,0,0,0,0,0,0,0,0,0,0,0,0,0,0,0,0,0,0,0,0,0,0,0,0,0,0,0,0,0,0,0,0,0,0,0,0],"sum_hessian":[1.079594E3,6.085154E2,4.7107858E2,5.827955E2,2.5719933E1,3.9235645E2,7.8722115E1,2.2702564E1,5.600929E2,5.1165905E0,2.0603344E1,8.303613E1,3.093203E2,7.552146E1,3.200656E0,1.055554E1,1.2147024E1,5.496471E2,1.044578E1,1.8722654E1,1.8806889E0,6.8729935E1,1.4306197E1,2.9299738E2,1.6322952E1,7.444124E1,1.0802205E0,2.0503256E0,1.1503303E0,9.396912E0,1.1586283E0,1.0290109E1,1.8569154E0,4.7688074E2,7.2766365E1,3.958227E0,6.4875526E0,5.939651E1,9.333424E0,1.7940768E0,1.251212E1,2.8697763E2,6.0197554E0,1.2566605E1,3.7563488E0,4.7533005E2,1.550692E0,1.3300294E1,5.9466076E1,1.1364679E0,5.3510847E0,1.653647E0,5.7742867E1,6.836548E0,2.496876E0,6.9774656E0,2.8000015E2,4.8853836E0,1.1343715E0],"tree_param":{"num_deleted":"0","num_feature":"16384","num_nodes":"59","size_leaf_vector":"1"}},{"base_weights":[8.6812E-2,1.2306857E0,-2.1973082E-1,-6.036967E-2,1.3758894E0,5.5663083E-2,-5.847743E-1,1.3970045E0,-2.1492034E-1,-3.3395588E-1,3.868421E-1,-2.9409194E-1,-6.337287E-1,1.4114501E0,-1.0703667E-2,-3.943331E-2,9.0625705E-3,-3.3051476E-3,-5.067766E-1,8.5659015E-1,-1.5861721E-1,-4.5873234E-1,4.99727E-1,1.3327886E-2,-6.368569E-2,1.4183252E-1,9.541086E-3,5.8236504E-1,-2.383522E-1,1.1561052E-2,-5.648378E-1,2.8740206E-1,1.2180243E0,6.497283E-1,-3.4696734E-1,6.8225145E-1,-5.590403E-1,1.3270615E-1,-5.1752E-2,-5.4963704E-2,9.4380625E-2,5.385257E-2,-4.4049326E-2,6.0758322E-2,-5.7418782E-2,5.9708238E-2,-5.8630437E-2,5.7858575E-2,-6.1380096E-2,1.4355451E-1,5.0077368E-2,1.0789373E-1,-5.6041595E-2,2.7033633E-2,-5.2583255E-2,1.1433078E-1,-3.356727E-2,-6.259746E-2,3.2170456E-2],"categories":[],"categories_nodes":[],"categories_segments":[],"categories_sizes":[],"default_left":[0,0,0,0,0,0,0,0,0,0,0,0,0,0,0,0,0,0,0,0,0,0,0,0,0,0,0,0,0,0,0,0,0,0,0,0,0,0,0,0,0,0,0,0,0,0,0,0,0,0,0,0,0,0,0,0,0,0,0],"id":8,"left_children":[1,3,5,-1,7,9,11,13,15,17,19,21,23,25,-1,-1,-1,27,29,31,33,35,37,-1,-1,-1,-1,39,41,43,45,47,49,51,53,55,57,-1,-1,-1,-1,-1,-1,-1,-1,-1,-1,-1,-1,-1,-1,-1,-1,-1,-1,-1,-1,-1,-1],"loss_changes":[3.775983E2,6.1449036E1,8.5434525E1,0E0,7.3942566E0,6.272682E1,5.0130997E0,4.682434E0,2.3490244E-1,1.2766062E1,6.744525E1,7.3562107E0,8.331299E-1,1.734314E0,0E0,0E0,0E0,1.0835269E1,4.422474E0,2.8718346E1,1.8860275E1,5.610114E0,8.973051E0,0E0,0E0,0E0,0E0,9.742542E0,9.056262E0,5.851119E0,3.6417542E0,1.5099234E1,1.2716064E1,1.2799036E1,1.11744175E1,2.3277936E0,2.709402E0,0E0,0E0,0E0,0E0,0E0,0E0,0E0,0E0,0E0,0E0,0E0,0E0,0E0,0E0,0E0,0E0,0E0,0E0,0E0,0E0,0E0,0E0],"parents":[2147483647,0,0,1,1,2,2,4,4,5,5,6,6,7,7,8,8,9,9,10,10,11,11,12,12,13,13,17,17,18,18,19,19,20,20,21,21,22,22,27,27,28,28,29,29,30,30,31,31,32,32,33,33,34,34,35,35,36,36],"right_children":[2,4,6,-1,8,10,12,14,16,18,20,22,24,26,-1,-1,-1,28,30,32,34,36,38,-1,-1,-1,-1,40,42,44,46,48,50,52,54,56,58,-1,-1,-1,-1,-1,-1,-1,-1,-1,-1,-1,-1,-1,-1,-1,-1,-1,-1,-1,-1,-1,-1],"split_conditions":[1E0,2E0,5E0,-6.036967E-2,5E0,3E0,6E0,1.65E2,4E0,6.9E1,1E0,8E0,6E0,2E0,-1.0703667E-2,-3.943331E-2,9.0625705E-3,5.7E1,4E1,4E0,2E0,4E0,7E1,1.3327886E-2,-6.368569E-2,1.4183252E-1,9.541086E-3,3E0,1E0,6.2E1,2.8E1,8.3E1,3E0,8.4E1,6E0,1E0,1.2E1,1.3270615E-1,-5.1752E-2,-5.4963704E-2,9.4380625E-2,5.385257E-2,-4.4049326E-2,6.0758322E-2,-5.7418782E-2,5.9708238E-2,-5.8630437E-2,5.7858575E-2,-6.1380096E-2,1.4355451E-1,5.0077368E-2,1.0789373E-1,-5.6041595E-2,2.7033633E-2,-5.2583255E-2,1.1433078E-1,-3.356727E-2,-6.259746E-2,3.2170456E-2],"split_indices":[10736,10733,815,0,1131,772,1569,12890,472,7509,5251,16366,9883,108,0,0,0,10549,12352,12415,5119,15049,8494,0,0,0,0,12784,9358,10719,7767,4282,5503,9537,6769,546,11262,0,0,0,0,0,0,0,0,0,0,0,0,0,0,0,0,0,0,0,0,0,0],"split_type":[0,0,0,0,0,0,0,0,0,0,0,0,0,0,0,0,0,0,0,0,0,0,0,0,0,0,0,0,0,0,0,0,0,0,0,0,0,0,0,0,0,0,0,0,0,0,0,0,0,0,0,0,0,0,0,0,0,0,0],"sum_hessian":[1.0750925E3,2.2658163E2,8.4851086E2,1.6388271E1,2.1019337E2,4.8412656E2,3.643843E2,2.0756021E2,2.6331608E0,2.2243373E2,2.6169284E2,5.353145E1,3.1085287E2,2.0564662E2,1.9135828E0,1.4759291E0,1.1572317E0,7.670201E1,1.4573172E2,1.402981E2,1.2139473E2,4.4685635E1,8.845814E0,1.0936621E0,3.0975922E2,2.0450061E2,1.1460176E0,2.1543673E1,5.5158337E1,1.4760379E1,1.3097133E2,5.5186047E1,8.511205E1,2.2477608E1,9.891712E1,3.1421947E0,4.154344E1,4.710317E0,4.1354966E0,5.087957E0,1.6455715E1,1.1045119E1,4.4113216E1,7.2975564E0,7.4628224E0,1.8893981E0,1.2908194E2,4.1980045E1,1.3206E1,6.45381E1,2.0573952E1,1.6672646E1,5.8049636E0,2.2107573E1,7.680955E1,2.077872E0,1.0643227E0,3.8878075E1,2.6653655E0],"tree_param":{"num_deleted":"0","num_feature":"16384","num_nodes":"59","size_leaf_vector":"1"}},{"base_weights":[8.590287E-2,-5.7419014E-1,2.345354E-1,-6.0733324E-1,6.4443266E-1,8.195606E-1,-1.19058095E-1,-6.3162166E-1,-6.733745E-2,1.2036183E-1,-4.0859636E-2,1.2085516E0,5.421945E-1,-2.2099957E-1,6.338347E-1,-6.368709E-2,1.3348843E-2,-5.5013712E-2,7.888122E-1,1.2660657E0,-5.402878E-2,3.4629025E-2,7.96357E-1,1.18551895E-1,-3.7384596E-1,1.0619891E0,2.306239E-2,1.02833174E-1,1.1193535E-2,-1.9648948E-1,1.321128E0,6.08179E-1,-3.6946E-1,8.78499E-1,-3.8010806E-1,-1.2478805E-1,7.2721094E-1,-4.119553E-1,1.1987474E0,1.2549872E0,-2.226385E-1,-3.2558668E-1,1.2898323E-1,-5.0060388E-2,5.0328124E-2,-5.1140603E-2,1.3571328E-1,-4.820175E-3,1.15033746E-1,-5.7719357E-2,5.6518704E-2,9.574843E-2,-3.5618655E-2,5.199945E-2,-5.8147114E-2,-3.016444E-2,5.1507134E-2,-4.341855E-3,1.0499283E-1,-4.4351984E-2,1.0070022E-1,9.496866E-3,1.3661812E-1,2.4000973E-2,1.4271256E-1,5.0369497E-2,-5.2116383E-2,-5.223861E-2,8.000607E-2],"categories":[],"categories_nodes":[],"categories_segments":[],"categories_sizes":[],"default_left":[0,0,0,0,0,0,0,0,0,0,0,0,0,0,0,0,0,0,0,0,0,0,0,0,0,0,0,0,0,0,0,0,0,0,0,0,0,0,0,0,0,0,0,0,0,0,0,0,0,0,0,0,0,0,0,0,0,0,0,0,0,0,0,0,0,0,0,0,0],"id":9,"left_children":[1,3,5,7,9,11,13,15,17,-1,-1,19,21,23,25,-1,-1,-1,27,29,-1,31,33,35,37,39,41,-1,-1,43,45,47,49,51,53,55,57,59,61,63,65,67,-1,-1,-1,-1,-1,-1,-1,-1,-1,-1,-1,-1,-1,-1,-1,-1,-1,-1,-1,-1,-1,-1,-1,-1,-1,-1,-1],"loss_changes":[1.05802055E2,8.397697E0,1.8209088E2,2.4953003E0,3.8680422E0,3.511734E1,4.22939E1,8.282318E-1,4.339271E0,0E0,0E0,1.4483444E1,2.5174969E1,2.5188074E1,1.7170918E1,0E0,0E0,0E0,5.0382876E-1,1.0980362E1,0E0,1.5574787E1,1.2909447E1,2.247708E1,2.0530212E1,9.858139E0,1.2839769E1,0E0,0E0,1.4650884E0,9.167526E0,9.931821E0,7.9911427E0,1.2232903E1,1.9681902E0,1.2470955E1,1.0817894E1,1.5099773E1,1.3794041E0,5.552269E0,1.5408335E0,5.4798536E0,0E0,0E0,0E0,0E0,0E0,0E0,0E0,0E0,0E0,0E0,0E0,0E0,0E0,0E0,0E0,0E0,0E0,0E0,0E0,0E0,0E0,0E0,0E0,0E0,0E0,0E0,0E0],"parents":[2147483647,0,0,1,1,2,2,3,3,4,4,5,5,6,6,7,7,8,8,11,11,12,12,13,13,14,14,18,18,19,19,21,21,22,22,23,23,24,24,25,25,26,26,29,29,30,30,31,31,32,32,33,33,34,34,35,35,36,36,37,37,38,38,39,39,40,40,41,41],"right_children":[2,4,6,8,10,12,14,16,18,-1,-1,20,22,24,26,-1,-1,-1,28,30,-1,32,34,36,38,40,42,-1,-1,44,46,48,50,52,54,56,58,60,62,64,66,68,-1,-1,-1,-1,-1,-1,-1,-1,-1,-1,-1,-1,-1,-1,-1,-1,-1,-1,-1,-1,-1,-1,-1,-1,-1,-1,-1],"split_conditions":[2E0,1.75E2,1E1,3E0,1.36E2,1E1,1.19E2,2.09E2,8E1,1.2036183E-1,-4.0859636E-2,1.36E2,2E0,6E0,8E0,-6.368709E-2,1.3348843E-2,-5.5013712E-2,6.3E1,2.6E1,-5.402878E-2,9E0,7E0,8.8E1,1.92E2,1.34E2,1.53E2,1.02833174E-1,1.1193535E-2,4E0,7E0,7.1E1,9.3E1,1.06E2,1E1,1.3E1,6.5E1,1.87E2,8.1E1,6.1E1,3E0,1.74E2,1.2898323E-1,-5.0060388E-2,5.0328124E-2,-5.1140603E-2,1.3571328E-1,-4.820175E-3,1.15033746E-1,-5.7719357E-2,5.6518704E-2,9.574843E-2,-3.5618655E-2,5.199945E-2,-5.8147114E-2,-3.016444E-2,5.1507134E-2,-4.341855E-3,1.0499283E-1,-4.4351984E-2,1.0070022E-1,9.496866E-3,1.3661812E-1,2.4000973E-2,1.4271256E-1,5.0369497E-2,-5.2116383E-2,-5.223861E-2,8.000607E-2],"split_indices":[10993,3908,4376,10992,3508,8469,8218,10138,4699,0,0,14925,152,14320,5001,0,0,0,2381,9549,0,12899,581,11438,11508,11584,4998,0,0,431,9664,4407,5967,14642,1594,16295,10178,14682,14113,10832,708,6115,0,0,0,0,0,0,0,0,0,0,0,0,0,0,0,0,0,0,0,0,0,0,0,0,0,0,0],"split_type":[0,0,0,0,0,0,0,0,0,0,0,0,0,0,0,0,0,0,0,0,0,0,0,0,0,0,0,0,0,0,0,0,0,0,0,0,0,0,0,0,0,0,0,0,0,0,0,0,0,0,0,0,0,0,0,0,0,0,0,0,0,0,0,0,0,0,0,0,0],"sum_hessian":[1.0760155E3,1.9723051E2,8.7878503E2,1.9249677E2,4.7337403E0,3.305567E2,5.4822833E2,1.8404878E2,8.447992E0,2.9984696E0,1.7352707E0,1.3619429E2,1.9436241E2,4.8347272E2,6.475561E1,1.8296112E2,1.0876588E0,5.630354E0,2.8176386E0,1.3212514E2,4.0691433E0,6.523119E1,1.2913123E2,1.5014557E2,3.3332715E2,3.763472E1,2.7120886E1,1.697671E0,1.1199676E0,4.7005873E0,1.2742455E2,2.6753351E1,3.8477844E1,1.20940315E2,8.190906E0,1.0783033E2,4.2315243E1,3.2616116E2,7.1659617E0,3.273917E1,4.8955503E0,2.1850124E1,5.270762E0,3.4749994E0,1.2255878E0,2.200916E0,1.2522364E2,1.2513993E1,1.4239357E1,3.179383E1,6.6840115E0,1.13879715E2,7.060599E0,1.2081311E0,6.9827743E0,8.489424E1,2.2936085E1,1.2745415E1,2.9569826E1,3.197361E2,6.425061E0,1.1502609E0,6.015701E0,5.094545E0,2.7644625E1,1.2258042E0,3.6697462E0,1.9054676E1,2.7954469E0],"tree_param":{"num_deleted":"0","num_feature":"16384","num_nodes":"69","size_leaf_vector":"1"}},{"base_weights":[-2.733915E-1,-4.8880282E-1,9.257569E-1,9.112204E-1,-5.978364E-1,1.2985959E0,5.9202826E-1,1.0967529E0,-2.711226E-1,-6.153322E-1,1.0782697E0,-4.4919603E-2,1.358563E0,8.197028E-1,-2.1372959E-2,1.2136619E0,-1.8331695E-1,-5.6929667E-2,8.9540355E-2,-6.212747E-1,1.0650965E-1,1.3218176E-1,-3.3755694E-2,-3.439757E-2,1.3902452E0,9.844872E-1,-1.8075208E-1,-4.455949E-1,9.120473E-1,1.2874694E0,-4.4177543E-2,4.828896E-2,-4.9632628E-2,1.03235506E-1,-6.2609786E-1,8.279149E-3,1.4114833E0,-5.2222133E-2,1.099313E0,9.902363E-2,-5.6975044E-2,5.1891785E-2,-6.108437E-2,1.2655124E-1,-3.8384564E-2,1.3758646E-1,-2.0365566E-3,-6.30907E-2,9.937941E-2,4.7629207E-2,1.4338332E-1,1.2086163E-1,-4.8906095E-2],"categories":[],"categories_nodes":[],"categories_segments":[],"categories_sizes":[],"default_left":[0,0,0,0,0,0,0,0,0,0,0,0,0,0,0,0,0,0,0,0,0,0,0,0,0,0,0,0,0,0,0,0,0,0,0,0,0,0,0,0,0,0,0,0,0,0,0,0,0,0,0,0,0],"id":10,"left_children":[1,3,5,7,9,11,13,15,17,19,21,-1,23,25,27,29,31,-1,-1,33,-1,-1,-1,-1,35,37,39,41,43,45,-1,-1,-1,-1,47,-1,49,-1,51,-1,-1,-1,-1,-1,-1,-1,-1,-1,-1,-1,-1,-1,-1],"loss_changes":[2.6470914E2,1.3302748E2,1.8658325E1,1.4139927E1,2.4292938E1,8.251663E0,1.1780098E1,8.414825E0,3.7657218E0,8.63147E0,3.4418287E0,0E0,4.293808E0,1.03088E1,9.820351E0,6.7136993E0,1.3761582E0,0E0,0E0,6.994385E0,0E0,0E0,0E0,0E0,1.8169708E0,9.729084E0,4.9075675E0,3.029242E0,4.03881E0,5.623535E0,0E0,0E0,0E0,0E0,6.814148E0,0E0,7.4816895E-1,0E0,9.183479E0,0E0,0E0,0E0,0E0,0E0,0E0,0E0,0E0,0E0,0E0,0E0,0E0,0E0,0E0],"parents":[2147483647,0,0,1,1,2,2,3,3,4,4,5,5,6,6,7,7,8,8,9,9,10,10,12,12,13,13,14,14,15,15,16,16,19,19,24,24,25,25,26,26,27,27,28,28,29,29,34,34,36,36,38,38],"right_children":[2,4,6,8,10,12,14,16,18,20,22,-1,24,26,28,30,32,-1,-1,34,-1,-1,-1,-1,36,38,40,42,44,46,-1,-1,-1,-1,48,-1,50,-1,52,-1,-1,-1,-1,-1,-1,-1,-1,-1,-1,-1,-1,-1,-1],"split_conditions":[1E0,2E0,2.1E1,1.59E2,6E0,2E1,7.9E1,2E0,2.37E2,2.21E2,3.7E1,-4.4919603E-2,1.4E1,1.37E2,1.41E2,1.72E2,4.7E1,-5.6929667E-2,8.9540355E-2,1E0,1.0650965E-1,1.3218176E-1,-3.3755694E-2,-3.439757E-2,1.5E1,2.4E1,2.5E1,5.9E1,3.7E1,1.41E2,-4.4177543E-2,4.828896E-2,-4.9632628E-2,1.03235506E-1,2.08E2,8.279149E-3,2.3E1,-5.2222133E-2,5E1,9.902363E-2,-5.6975044E-2,5.1891785E-2,-6.108437E-2,1.2655124E-1,-3.8384564E-2,1.3758646E-1,-2.0365566E-3,-6.30907E-2,9.937941E-2,4.7629207E-2,1.4338332E-1,1.2086163E-1,-4.8906095E-2],"split_indices":[8449,1431,1201,10894,26,5823,15520,14476,3816,12828,592,0,10180,2115,12378,5926,2619,0,0,1065,0,0,0,0,8779,3996,1094,3015,1176,11210,0,0,0,0,14899,0,13247,0,14214,0,0,0,0,0,0,0,0,0,0,0,0,0,0],"split_type":[0,0,0,0,0,0,0,0,0,0,0,0,0,0,0,0,0,0,0,0,0,0,0,0,0,0,0,0,0,0,0,0,0,0,0,0,0,0,0,0,0,0,0,0,0,0,0,0,0,0,0,0,0],"sum_hessian":[1.0220207E3,8.6688794E2,1.5513272E2,6.2103497E1,8.047844E2,7.190729E1,8.322544E1,5.374263E1,8.360868E0,7.970969E2,7.687503E0,2.17E0,6.973729E1,6.045149E1,2.2773952E1,4.9292603E1,4.4500246E0,7.0665665E0,1.2943022E0,7.9491614E2,2.1807714E0,6.6158543E0,1.0716487E0,1.0939428E0,6.864334E1,5.191634E1,8.535149E0,1.6017103E1,6.75685E0,4.7401493E1,1.8911105E0,1.2489779E0,3.201047E0,1.69224E0,7.9322394E2,1.1755072E0,6.7467834E1,3.4251149E0,4.8491226E1,1.7429129E0,6.792236E0,2.0297544E0,1.3987348E1,5.327245E0,1.4296044E0,4.4351788E1,3.0497046E0,7.9148474E2,1.7392076E0,2.0955188E0,6.5372314E1,4.5592857E1,2.898368E0],"tree_param":{"num_deleted":"0","num_feature":"16384","num_nodes":"53","size_leaf_vector":"1"}},{"base_weights":[8.712325E-2,-4.0613568E-1,7.277368E-1,-4.7508284E-1,1.060018E0,9.711528E-1,-5.4289013E-1,-6.03954E-1,-1.4983486E-1,-5.090474E-2,1.313236E0,-2.4403758E-1,1.1339912E0,-6.173617E-1,8.2510006E-1,-6.219538E-1,-1.2551126E-2,8.078837E-1,-4.3045694E-1,-3.550538E-2,1.4109413E-1,9.9649197E-1,-4.0253946E-1,3.5056043E-1,1.2552348E0,1.468984E-2,-6.307811E-2,1.0713824E-1,8.632439E-3,-6.3148516E-1,2.047343E-1,1.2290795E-1,-4.8612508E-1,-5.126429E-1,1.3585347E0,9.834897E-1,-5.34943E-1,7.093766E-3,1.23105325E-1,9.284168E-2,-5.0778973E-1,-1.1627065E-1,1.1504309E0,1.3003806E0,-2.103983E-1,1.4998327E-2,-6.362653E-2,-4.657516E-2,1.06481686E-1,1.436576E-2,-5.74132E-2,1.1543799E-2,-5.8779925E-2,1.4743172E-1,-3.9398458E-2,-4.2851157E-2,1.3893233E-1,-5.8085095E-2,7.5200826E-2,-6.0137182E-2,8.2172476E-2,8.458046E-2,-5.874498E-2,1.3673589E-1,-4.408672E-2,-4.9449775E-2,1.3186923E-1,-5.859406E-2,9.4541244E-2],"categories":[],"categories_nodes":[],"categories_segments":[],"categories_sizes":[],"default_left":[0,0,0,0,0,0,0,0,0,0,0,0,0,0,0,0,0,0,0,0,0,0,0,0,0,0,0,0,0,0,0,0,0,0,0,0,0,0,0,0,0,0,0,0,0,0,0,0,0,0,0,0,0,0,0,0,0,0,0,0,0,0,0,0,0,0,0,0,0],"id":11,"left_children":[1,3,5,7,9,11,13,15,17,-1,19,21,23,25,27,29,31,33,35,-1,-1,37,39,41,43,-1,-1,-1,-1,45,47,-1,49,51,53,55,57,-1,-1,-1,59,61,63,65,67,-1,-1,-1,-1,-1,-1,-1,-1,-1,-1,-1,-1,-1,-1,-1,-1,-1,-1,-1,-1,-1,-1,-1,-1],"loss_changes":[3.403137E2,6.2023712E1,1.4541812E2,2.4301636E1,1.1651621E1,7.814331E1,8.247612E0,4.425522E0,4.508905E1,0E0,4.426262E0,9.705959E0,3.2537384E1,8.373184E-1,6.9889545E-1,3.313736E0,8.430667E0,2.8380999E1,1.9643696E1,0E0,0E0,1.1390815E0,6.449273E0,1.8025995E1,2.0141266E1,0E0,0E0,0E0,0E0,1.5888367E0,3.587875E0,0E0,6.5668774E-1,6.3100505E-1,6.088394E0,5.8997736E0,7.5942345E0,0E0,0E0,0E0,5.4948664E0,1.4624509E1,6.730406E0,1.0230652E1,4.8221984E0,0E0,0E0,0E0,0E0,0E0,0E0,0E0,0E0,0E0,0E0,0E0,0E0,0E0,0E0,0E0,0E0,0E0,0E0,0E0,0E0,0E0,0E0,0E0,0E0],"parents":[2147483647,0,0,1,1,2,2,3,3,4,4,5,5,6,6,7,7,8,8,10,10,11,11,12,12,13,13,14,14,15,15,16,16,17,17,18,18,21,21,22,22,23,23,24,24,29,29,30,30,32,32,33,33,34,34,35,35,36,36,40,40,41,41,42,42,43,43,44,44],"right_children":[2,4,6,8,10,12,14,16,18,-1,20,22,24,26,28,30,32,34,36,-1,-1,38,40,42,44,-1,-1,-1,-1,46,48,-1,50,52,54,56,58,-1,-1,-1,60,62,64,66,68,-1,-1,-1,-1,-1,-1,-1,-1,-1,-1,-1,-1,-1,-1,-1,-1,-1,-1,-1,-1,-1,-1,-1,-1],"split_conditions":[5E0,2.2E1,2E0,2.6E1,2.5E1,1.2E1,1.03E2,1.28E2,5E0,-5.090474E-2,1E0,1.2E1,8E0,4.9E1,1.1E1,1.93E2,5.8E1,3E0,1.5E1,-3.550538E-2,1.4109413E-1,7E0,3.3E1,6E0,1.04E2,1.468984E-2,-6.307811E-2,1.0713824E-1,8.632439E-3,1.4E1,2E0,1.2290795E-1,6E1,1.7E1,1E2,7E0,6E0,7.093766E-3,1.23105325E-1,9.284168E-2,1.52E2,1E0,7.5E1,1.1E1,9.7E1,1.4998327E-2,-6.362653E-2,-4.657516E-2,1.06481686E-1,1.436576E-2,-5.74132E-2,1.1543799E-2,-5.8779925E-2,1.4743172E-1,-3.9398458E-2,-4.2851157E-2,1.3893233E-1,-5.8085095E-2,7.5200826E-2,-6.0137182E-2,8.2172476E-2,8.458046E-2,-5.874498E-2,1.3673589E-1,-4.408672E-2,-4.9449775E-2,1.3186923E-1,-5.859406E-2,9.4541244E-2],"split_indices":[1643,13443,6017,3739,15717,4377,14075,15037,14757,0,3457,10299,10224,6355,134,14409,9269,1646,12979,0,0,1455,8266,665,6862,0,0,0,0,5683,664,0,4534,2355,8634,7671,1274,0,0,0,12263,16316,9697,2349,950,0,0,0,0,0,0,0,0,0,0,0,0,0,0,0,0,0,0,0,0,0,0,0,0],"split_type":[0,0,0,0,0,0,0,0,0,0,0,0,0,0,0,0,0,0,0,0,0,0,0,0,0,0,0,0,0,0,0,0,0,0,0,0,0,0,0,0,0,0,0,0,0,0,0,0,0,0,0,0,0,0,0,0,0,0,0,0,0,0,0,0,0,0,0,0,0],"sum_hessian":[1.0750464E3,6.0758484E2,4.6746152E2,5.809415E2,2.6643326E1,3.9250452E2,7.495702E1,4.154666E2,1.6547491E2,3.5618732E0,2.3081453E1,4.6322426E1,3.4618207E2,7.160751E1,3.3495097E0,4.03145E2,1.2321647E1,3.707272E1,1.2840219E2,1.1312779E0,2.1950174E1,4.6490746E0,4.167335E1,4.6916508E1,2.9926556E2,1.0640001E0,7.054351E1,2.1744196E0,1.1750901E0,3.987833E2,4.3616753E0,2.9615743E0,9.360073E0,1.093009E1,2.614263E1,8.256694E0,1.201455E2,1.2033215E0,3.445753E0,2.480817E0,3.9192535E1,3.0165533E1,1.6750973E1,2.904322E2,8.833397E0,2.2398014E0,3.965435E2,2.7086225E0,1.653053E0,1.0700912E0,8.289982E0,1.110839E0,9.819251E0,2.4671425E1,1.4712048E0,1.8308402E0,6.4258533E0,1.1653707E2,3.6084335E0,3.7126915E1,2.06562E0,9.655471E0,2.0510063E1,1.486525E1,1.8857228E0,2.6704822E0,2.877617E2,7.039268E0,1.7941284E0],"tree_param":{"num_deleted":"0","num_feature":"16384","num_nodes":"69","size_leaf_vector":"1"}},{"base_weights":[8.113884E-2,1.089786E0,-2.0953655E-1,-5.8832373E-2,1.2065412E0,5.3318024E-2,-5.7158655E-1,1.2320416E0,8.134133E-2,-3.2229972E-1,3.5855287E-1,-2.828372E-1,-6.2157106E-1,1.2448612E0,-3.926126E-2,-4.9160205E-2,8.8650204E-2,-1.8781144E-2,-4.8472303E-1,7.7707106E-1,-1.5079111E-1,-4.4550046E-1,4.6818352E-1,1.3603953E-2,-6.2483054E-2,1.2486347E-1,3.7948783E-2,2.3867182E-1,-5.433266E-1,1.3948447E-1,-5.329958E-1,-9.340315E-2,9.6646404E-1,1.796132E-1,-5.9076023E-1,5.609636E-1,-5.458123E-1,1.2037901E-1,-5.0698947E-2,9.263399E-2,-1.098445E-2,5.651457E-2,-6.1907124E-2,1.1991481E-1,-5.4662663E-2,4.5677602E-2,-5.53849E-2,1.1813785E-1,-4.1114375E-2,1.2030474E-1,2.3880117E-2,1.1083721E-1,-6.1897826E-3,-6.280514E-2,5.67778E-2,1.0447045E-1,-3.5547826E-2,6.742007E-2,-6.1509997E-2],"categories":[],"categories_nodes":[],"categories_segments":[],"categories_sizes":[],"default_left":[0,0,0,0,0,0,0,0,0,0,0,0,0,0,0,0,0,0,0,0,0,0,0,0,0,0,0,0,0,0,0,0,0,0,0,0,0,0,0,0,0,0,0,0,0,0,0,0,0,0,0,0,0,0,0,0,0,0,0],"id":12,"left_children":[1,3,5,-1,7,9,11,13,15,17,19,21,23,25,-1,-1,-1,27,29,31,33,35,37,-1,-1,-1,-1,39,41,43,45,47,49,51,53,55,57,-1,-1,-1,-1,-1,-1,-1,-1,-1,-1,-1,-1,-1,-1,-1,-1,-1,-1,-1,-1,-1,-1],"loss_changes":[3.1234497E2,4.740277E1,7.875614E1,0E0,6.302368E0,5.517037E1,4.8475723E0,5.0318604E0,3.2109187E0,1.062965E1,5.6690144E1,6.7069464E0,8.1559753E-1,2.3361206E-1,0E0,0E0,0E0,1.0429258E1,4.3089943E0,2.4134743E1,1.7629173E1,4.77229E0,7.753421E0,0E0,0E0,0E0,0E0,1.252904E1,2.4836674E0,8.566247E0,2.9496841E0,1.1411481E1,2.034909E1,1.5682594E1,2.6002522E0,2.3674119E0,3.8580084E0,0E0,0E0,0E0,0E0,0E0,0E0,0E0,0E0,0E0,0E0,0E0,0E0,0E0,0E0,0E0,0E0,0E0,0E0,0E0,0E0,0E0,0E0],"parents":[2147483647,0,0,1,1,2,2,4,4,5,5,6,6,7,7,8,8,9,9,10,10,11,11,12,12,13,13,17,17,18,18,19,19,20,20,21,21,22,22,27,27,28,28,29,29,30,30,31,31,32,32,33,33,34,34,35,35,36,36],"right_children":[2,4,6,-1,8,10,12,14,16,18,20,22,24,26,-1,-1,-1,28,30,32,34,36,38,-1,-1,-1,-1,40,42,44,46,48,50,52,54,56,58,-1,-1,-1,-1,-1,-1,-1,-1,-1,-1,-1,-1,-1,-1,-1,-1,-1,-1,-1,-1,-1,-1],"split_conditions":[1E0,2E0,5E0,-5.8832373E-2,1E0,3E0,6E0,1.62E2,1E0,6.9E1,1E0,8E0,6E0,1.96E2,-3.926126E-2,-4.9160205E-2,8.8650204E-2,9E0,3.9E1,1E0,3E1,3.2E1,7E1,1.3603953E-2,-6.2483054E-2,1.2486347E-1,3.7948783E-2,5.5E1,2.7E1,7.5E1,2.1E1,4.3E1,3E0,2E0,1.3E2,6.1E1,2.4E1,1.2037901E-1,-5.0698947E-2,9.263399E-2,-1.098445E-2,5.651457E-2,-6.1907124E-2,1.1991481E-1,-5.4662663E-2,4.5677602E-2,-5.53849E-2,1.1813785E-1,-4.1114375E-2,1.2030474E-1,2.3880117E-2,1.1083721E-1,-6.1897826E-3,-6.280514E-2,5.67778E-2,1.0447045E-1,-3.5547826E-2,6.742007E-2,-6.1509997E-2],"split_indices":[8432,2582,815,0,4623,772,1569,14259,19,7509,5251,16366,9883,2103,0,0,0,2723,9029,12426,15635,8403,8494,0,0,0,0,4027,10792,5025,11598,6580,5503,4863,7469,1339,10443,0,0,0,0,0,0,0,0,0,0,0,0,0,0,0,0,0,0,0,0,0,0],"split_type":[0,0,0,0,0,0,0,0,0,0,0,0,0,0,0,0,0,0,0,0,0,0,0,0,0,0,0,0,0,0,0,0,0,0,0,0,0,0,0,0,0,0,0,0,0,0,0,0,0,0,0,0,0,0,0,0,0,0,0],"sum_hessian":[1.063558E3,2.3731677E2,8.262413E2,1.5174614E1,2.2214217E2,4.7919217E2,3.4704907E2,2.1712646E2,5.0157022E0,2.1480286E2,2.643893E2,5.219405E1,2.9485504E2,2.1565852E2,1.4679309E0,3.1579654E0,1.8577368E0,7.526733E1,1.3953554E2,1.4484627E2,1.1954304E2,4.323632E1,8.957728E0,1.0886178E0,2.9376642E2,2.1428128E2,1.3772459E0,5.0853054E1,2.4414272E1,9.880673E0,1.2965486E2,2.5973877E1,1.1887239E2,6.861037E1,5.0932674E1,3.502483E0,3.973384E1,4.972422E0,3.985306E0,1.6546568E1,3.4306484E1,1.1483105E0,2.3265963E1,3.589353E0,6.29132E0,2.243949E0,1.2741091E2,4.640009E0,2.1333868E1,8.9213356E1,2.9659039E1,1.3418527E1,5.5191837E1,4.9787987E1,1.1446874E0,2.2008266E0,1.3016562E0,1.6661366E0,3.8067703E1],"tree_param":{"num_deleted":"0","num_feature":"16384","num_nodes":"59","size_leaf_vector":"1"}},{"base_weights":[8.173636E-2,-5.597596E-1,2.1864277E-1,-5.935837E-1,5.9909415E-1,6.640688E-1,-1.6959907E-1,-6.184478E-1,-6.351561E-2,1.09053455E-1,-3.9584864E-2,9.904782E-1,3.3962086E-1,-3.2173133E-1,3.1658998E-1,1.4197923E-2,-6.239153E-2,-5.3899586E-2,7.33482E-1,1.0342857E0,-5.5292524E-2,1.8622627E-2,8.469208E-1,-3.5701582E-1,1.0466702E0,-2.2017358E-2,6.94641E-1,9.551834E-2,9.92491E-3,1.1096E0,3.5330957E-1,-1.8440643E-1,6.987215E-1,1.0013381E0,-1.840416E-1,3.3112463E-2,-4.719126E-1,1.2643151E-1,-3.336395E-2,5.607768E-1,-4.571282E-1,9.9192095E-1,3.4304038E-2,1.13290064E-1,-4.7617953E-2,-3.5408225E-2,1.0871895E-1,-4.174949E-2,4.4129755E-2,-4.5749903E-2,1.0458564E-1,-5.5815827E-2,1.0887589E-1,-4.979208E-2,9.711962E-2,3.3274975E-2,-5.772505E-2,-5.0985213E-2,5.4874014E-2,9.63219E-2,-2.0208264E-2,-5.3761847E-2,1.0207231E-1,-4.641849E-2,1.1109237E-1,-2.7310112E-2,1.0875912E-1],"categories":[],"categories_nodes":[],"categories_segments":[],"categories_sizes":[],"default_left":[0,0,0,0,0,0,0,0,0,0,0,0,0,0,0,0,0,0,0,0,0,0,0,0,0,0,0,0,0,0,0,0,0,0,0,0,0,0,0,0,0,0,0,0,0,0,0,0,0,0,0,0,0,0,0,0,0,0,0,0,0,0,0,0,0,0,0],"id":13,"left_children":[1,3,5,7,9,11,13,15,17,-1,-1,19,21,23,25,-1,-1,-1,27,29,-1,31,33,35,37,39,41,-1,-1,43,45,47,49,51,53,55,57,-1,-1,59,61,63,65,-1,-1,-1,-1,-1,-1,-1,-1,-1,-1,-1,-1,-1,-1,-1,-1,-1,-1,-1,-1,-1,-1,-1,-1],"loss_changes":[9.400705E1,7.7363434E0,1.5258774E2,2.3786545E0,3.2860935E0,4.3170013E1,3.500495E1,8.1669617E-1,3.9327102E0,0E0,0E0,1.4382874E1,3.378183E1,1.775166E1,1.4476619E1,0E0,0E0,0E0,4.5520306E-1,9.812912E0,0E0,1.7822042E1,1.2985531E1,1.5776596E1,3.216179E0,1.5613884E1,1.0449965E1,0E0,0E0,7.142166E0,1.14333315E1,1.4691394E1,1.2385879E1,1.0163353E1,4.588153E0,1.4993052E1,1.0800278E1,0E0,0E0,8.280326E0,4.7389555E0,6.890911E0,6.0005894E0,0E0,0E0,0E0,0E0,0E0,0E0,0E0,0E0,0E0,0E0,0E0,0E0,0E0,0E0,0E0,0E0,0E0,0E0,0E0,0E0,0E0,0E0,0E0,0E0],"parents":[2147483647,0,0,1,1,2,2,3,3,4,4,5,5,6,6,7,7,8,8,11,11,12,12,13,13,14,14,18,18,19,19,21,21,22,22,23,23,24,24,25,25,26,26,29,29,30,30,31,31,32,32,33,33,34,34,35,35,36,36,39,39,40,40,41,41,42,42],"right_children":[2,4,6,8,10,12,14,16,18,-1,-1,20,22,24,26,-1,-1,-1,28,30,-1,32,34,36,38,40,42,-1,-1,44,46,48,50,52,54,56,58,-1,-1,60,62,64,66,-1,-1,-1,-1,-1,-1,-1,-1,-1,-1,-1,-1,-1,-1,-1,-1,-1,-1,-1,-1,-1,-1,-1,-1],"split_conditions":[2E0,1.75E2,9E0,3E0,1.36E2,1.2E1,9.2E1,2.2E1,3E0,1.09053455E-1,-3.9584864E-2,1.36E2,2E0,1.61E2,6.7E1,1.4197923E-2,-6.239153E-2,-5.3899586E-2,2E0,5E0,-5.5292524E-2,2E0,7E0,1.4E1,1.08E2,8E0,1.15E2,9.551834E-2,9.92491E-3,1.75E2,6.8E1,9.8E1,5.8E1,7E0,1.01E2,7E0,1.43E2,1.2643151E-1,-3.336395E-2,1E0,9.9E1,6.9E1,1.82E2,1.13290064E-1,-4.7617953E-2,-3.5408225E-2,1.0871895E-1,-4.174949E-2,4.4129755E-2,-4.5749903E-2,1.0458564E-1,-5.5815827E-2,1.0887589E-1,-4.979208E-2,9.711962E-2,3.3274975E-2,-5.772505E-2,-5.0985213E-2,5.4874014E-2,9.63219E-2,-2.0208264E-2,-5.3761847E-2,1.0207231E-1,-4.641849E-2,1.1109237E-1,-2.7310112E-2,1.0875912E-1],"split_indices":[10993,3908,5394,10992,3508,8084,8220,5038,2414,0,0,14925,4995,2883,15017,0,0,0,186,12551,0,136,6788,9200,7847,5878,9071,0,0,9402,9439,12253,5704,11047,9789,665,14157,0,0,16381,16211,8289,10092,0,0,0,0,0,0,0,0,0,0,0,0,0,0,0,0,0,0,0,0,0,0,0,0],"split_type":[0,0,0,0,0,0,0,0,0,0,0,0,0,0,0,0,0,0,0,0,0,0,0,0,0,0,0,0,0,0,0,0,0,0,0,0,0,0,0,0,0,0,0,0,0,0,0,0,0,0,0,0,0,0,0,0,0,0,0,0,0,0,0,0,0,0,0],"sum_hessian":[1.0679982E3,1.8729764E2,8.807005E2,1.8245987E2,4.8377676E0,4.0981424E2,4.708863E2,1.7412538E2,8.334489E0,3.1739528E0,1.6638148E0,2.0326628E2,2.0654796E2,3.5891675E2,1.1196954E2,1.0647917E0,1.730606E2,5.422939E0,2.91155E0,1.9797684E2,5.289439E0,1.2713741E2,7.9410545E1,3.5061517E2,8.301574E0,5.9562874E1,5.2406666E1,1.7824385E0,1.1291115E0,1.776948E2,2.0282051E1,9.847011E1,2.8667305E1,6.9090866E1,1.0319679E1,7.9929375E1,2.706858E2,7.243471E0,1.0581028E0,2.5337124E1,3.422575E1,3.5791424E1,1.6615242E1,1.754031E2,2.291689E0,1.0590916E1,9.691135E0,7.1986374E1,2.6483736E1,6.5460606E0,2.2121244E1,3.3816175E0,6.570925E1,8.562286E0,1.7573929E0,5.3915962E1,2.6013407E1,2.6146707E2,9.2187395E0,1.6414896E1,8.922228E0,3.3061302E1,1.1644475E0,2.4849691E0,3.3306458E1,1.343493E1,3.1803112E0],"tree_param":{"num_deleted":"0","num_feature":"16384","num_nodes":"67","size_leaf_vector":"1"}},{"base_weights":[-2.625645E-1,-4.7510237E-1,8.3045477E-1,8.2186323E-1,-5.8475363E-1,9.002855E-1,-4.63374E-1,9.8215103E-1,-2.615699E-1,-6.026246E-1,9.9125904E-1,1.0381333E0,3.2479534E-1,-5.590873E-2,1.10414615E-2,1.0722619E0,-2.9320475E-1,-5.5930562E-2,8.4511206E-2,-6.087057E-1,9.783398E-2,1.20551884E-1,-3.2815516E-2,-2.4338458E-1,1.096475E0,-2.6878786E-1,8.8794327E-1,1.1342387E0,-4.31306E-2,-4.5749716E-2,1.1336471E-2,9.597901E-2,-6.1367244E-1,4.7827948E-2,-5.2200448E-2,1.1635331E0,6.309637E-3,9.541214E-2,-5.472442E-1,1.0999135E0,-4.2048678E-2,1.1865147E-1,-3.92621E-2,-6.1859768E-2,9.106747E-2,1.2003962E-1,-2.3336146E-2,9.235676E-2,-5.5354457E-2,-6.1307043E-2,9.453016E-3,1.2590511E-1,1.3130977E-2],"categories":[],"categories_nodes":[],"categories_segments":[],"categories_sizes":[],"default_left":[0,0,0,0,0,0,0,0,0,0,0,0,0,0,0,0,0,0,0,0,0,0,0,0,0,0,0,0,0,0,0,0,0,0,0,0,0,0,0,0,0,0,0,0,0,0,0,0,0,0,0,0,0],"id":14,"left_children":[1,3,5,7,9,11,13,15,17,19,21,23,25,-1,-1,27,29,-1,-1,31,-1,-1,-1,33,35,37,39,41,-1,-1,-1,-1,43,-1,-1,45,47,-1,49,51,-1,-1,-1,-1,-1,-1,-1,-1,-1,-1,-1,-1,-1],"loss_changes":[2.3050919E2,1.1850917E2,1.5019516E1,1.1564419E1,2.2166687E1,1.1854668E1,5.5252075E-1,6.8571396E0,3.4978817E0,7.8815613E0,2.929883E0,9.502777E0,1.0652655E1,0E0,0E0,5.464325E0,3.5527447E-1,0E0,0E0,6.4750977E0,0E0,0E0,0E0,1.4957522E0,8.643387E0,5.9483466E0,4.960863E0,4.5805435E0,0E0,0E0,0E0,0E0,6.2227173E0,0E0,0E0,6.020218E0,4.548917E0,0E0,6.3312054E-1,2.028799E0,0E0,0E0,0E0,0E0,0E0,0E0,0E0,0E0,0E0,0E0,0E0,0E0,0E0],"parents":[2147483647,0,0,1,1,2,2,3,3,4,4,5,5,6,6,7,7,8,8,9,9,10,10,11,11,12,12,15,15,16,16,19,19,23,23,24,24,25,25,26,26,27,27,32,32,35,35,36,36,38,38,39,39],"right_children":[2,4,6,8,10,12,14,16,18,20,22,24,26,-1,-1,28,30,-1,-1,32,-1,-1,-1,34,36,38,40,42,-1,-1,-1,-1,44,-1,-1,46,48,-1,50,52,-1,-1,-1,-1,-1,-1,-1,-1,-1,-1,-1,-1,-1],"split_conditions":[1E0,2E0,7.4E1,1.59E2,6E0,9.7E1,2.29E2,2E0,2.37E2,2.21E2,3.7E1,2.3E1,9.8E1,-5.590873E-2,1.10414615E-2,1.72E2,1.19E2,-5.5930562E-2,8.4511206E-2,1E0,9.783398E-2,1.20551884E-1,-3.2815516E-2,1.1E1,1.6E2,4.9E1,1.4E2,1.45E2,-4.31306E-2,-4.5749716E-2,1.1336471E-2,9.597901E-2,2.08E2,4.7827948E-2,-5.2200448E-2,1.07E2,7.4E1,9.541214E-2,1.78E2,5.7E1,-4.2048678E-2,1.1865147E-1,-3.92621E-2,-6.1859768E-2,9.106747E-2,1.2003962E-1,-2.3336146E-2,9.235676E-2,-5.5354457E-2,-6.1307043E-2,9.453016E-3,1.2590511E-1,1.3130977E-2],"split_indices":[8449,1431,3085,10894,26,1079,9847,2291,3816,12828,592,6208,7269,0,0,5926,1855,0,0,1065,0,0,0,3942,15281,6683,1987,12091,0,0,0,0,14899,0,0,11135,6371,0,4300,4085,0,0,0,0,0,0,0,0,0,0,0,0,0],"split_type":[0,0,0,0,0,0,0,0,0,0,0,0,0,0,0,0,0,0,0,0,0,0,0,0,0,0,0,0,0,0,0,0,0,0,0,0,0,0,0,0,0,0,0,0,0,0,0,0,0,0,0,0,0],"sum_hessian":[9.8955853E2,8.289369E2,1.6062164E2,6.411255E1,7.6482434E2,1.5268507E2,7.936572E0,5.5931313E1,8.181236E0,7.568597E2,7.964662E0,1.22531136E2,3.0153934E1,6.8239026E0,1.1126693E0,5.2388985E1,3.5423267E0,6.836572E0,1.3446642E0,7.545722E2,2.2874289E0,6.9262333E0,1.0384288E0,5.197287E0,1.1733385E2,1.4934746E1,1.5219189E1,5.0550922E1,1.8380659E0,2.4336433E0,1.1086832E0,1.7750272E0,7.527972E2,1.2480536E0,3.9492333E0,1.1047126E2,6.8625884E0,2.3198943E0,1.2614851E1,1.3234514E1,1.9846735E0,4.9093002E1,1.4579182E0,7.5096497E2,1.8322369E0,1.07768005E2,2.7032554E0,2.3548217E0,4.5077667E0,1.1481891E1,1.1329608E0,1.1109421E1,2.1250937E0],"tree_param":{"num_deleted":"0","num_feature":"16384","num_nodes":"53","size_leaf_vector":"1"}},{"base_weights":[8.115667E-2,-4.1174868E-1,6.377747E-1,-4.76888E-1,8.1379867E-1,8.358657E-1,-5.3066653E-1,-5.7098156E-1,-8.145661E-2,-5.3417232E-2,1.1078522E0,-1.3262886E-1,1.0028548E0,-6.0601217E-1,7.628782E-1,-5.833269E-1,5.2185243E-1,7.9959226E-1,-4.1320786E-1,1.2540255E-1,-4.288114E-2,-3.4668377E-1,8.059623E-1,1.0758662E0,-8.160282E-2,1.5621384E-2,-6.198594E-2,9.914439E-2,7.271716E-3,-5.999948E-1,1.2111577E-1,-3.8202614E-2,1.0010691E-1,-5.4587144E-2,1.1783917E0,-5.1530606E-1,9.067652E-1,5.28489E-1,-4.7049385E-1,-4.7082763E-2,1.2663746E-1,-3.2942677E-1,1.1175693E0,1.0470048E-1,-5.599483E-1,4.0584862E-2,-6.06593E-2,-4.3387737E-2,1.1095027E-1,-4.124587E-2,1.3131453E-1,-5.5458296E-2,9.49982E-2,5.219951E-3,1.1199963E-1,-4.563236E-2,1.1444523E-1,8.935411E-2,-5.4671444E-2,8.2975E-2,-5.881649E-2,1.15050785E-1,-7.601843E-3,-6.1139245E-2,1.0906219E-2],"categories":[],"categories_nodes":[],"categories_segments":[],"categories_sizes":[],"default_left":[0,0,0,0,0,0,0,0,0,0,0,0,0,0,0,0,0,0,0,0,0,0,0,0,0,0,0,0,0,0,0,0,0,0,0,0,0,0,0,0,0,0,0,0,0,0,0,0,0,0,0,0,0,0,0,0,0,0,0,0,0,0,0,0,0],"id":15,"left_children":[1,3,5,7,9,11,13,15,17,-1,19,21,23,25,27,29,31,33,35,-1,-1,37,39,41,43,-1,-1,-1,-1,45,47,-1,-1,-1,49,51,53,55,57,-1,-1,59,61,-1,63,-1,-1,-1,-1,-1,-1,-1,-1,-1,-1,-1,-1,-1,-1,-1,-1,-1,-1,-1,-1],"loss_changes":[2.9212E2,4.54756E1,1.16170334E2,1.9930626E1,1.2036514E1,6.933667E1,7.585861E0,6.153473E0,3.0836082E1,0E0,5.9349194E0,1.309993E1,2.8994751E1,8.3169746E-1,6.323514E-1,5.1118164E0,2.7087498E0,1.5367229E1,1.0774024E1,0E0,0E0,5.954747E0,7.7393064E0,2.0418701E1,1.3520757E1,0E0,0E0,0E0,0E0,3.0298157E0,6.379383E0,0E0,0E0,0E0,5.4420986E0,4.6490192E0,1.0081005E0,4.7670302E0,5.3399954E0,0E0,0E0,3.6770182E0,1.3159546E1,0E0,6.682291E-1,0E0,0E0,0E0,0E0,0E0,0E0,0E0,0E0,0E0,0E0,0E0,0E0,0E0,0E0,0E0,0E0,0E0,0E0,0E0,0E0],"parents":[2147483647,0,0,1,1,2,2,3,3,4,4,5,5,6,6,7,7,8,8,10,10,11,11,12,12,13,13,14,14,15,15,16,16,17,17,18,18,21,21,22,22,23,23,24,24,29,29,30,30,34,34,35,35,36,36,37,37,38,38,41,41,42,42,44,44],"right_children":[2,4,6,8,10,12,14,16,18,-1,20,22,24,26,28,30,32,34,36,-1,-1,38,40,42,44,-1,-1,-1,-1,46,48,-1,-1,-1,50,52,54,56,58,-1,-1,60,62,-1,64,-1,-1,-1,-1,-1,-1,-1,-1,-1,-1,-1,-1,-1,-1,-1,-1,-1,-1,-1,-1],"split_conditions":[5E0,1.6E1,2E0,7.2E1,3.3E1,9E0,1.03E2,6E0,6E0,-5.3417232E-2,1.02E2,1.09E2,9.8E1,3.4E1,1.6E1,1.29E2,5E0,3E0,7E0,1.2540255E-1,-4.288114E-2,4.7E1,7E0,1.3E1,4.9E1,1.5621384E-2,-6.198594E-2,9.914439E-2,7.271716E-3,9E0,1.28E2,-3.8202614E-2,1.0010691E-1,-5.4587144E-2,6E0,5E0,7.2E1,1.8E1,1E1,-4.7082763E-2,1.2663746E-1,5E0,1.39E2,1.0470048E-1,1.42E2,4.0584862E-2,-6.06593E-2,-4.3387737E-2,1.1095027E-1,-4.124587E-2,1.3131453E-1,-5.5458296E-2,9.49982E-2,5.219951E-3,1.1199963E-1,-4.563236E-2,1.1444523E-1,8.935411E-2,-5.4671444E-2,8.2975E-2,-5.881649E-2,1.15050785E-1,-7.601843E-3,-6.1139245E-2,1.0906219E-2],"split_indices":[1772,13828,6017,3739,6257,6290,14075,1649,14501,0,10558,7614,8350,11335,29,3231,1639,1646,2810,0,0,6726,3232,2349,11961,0,0,0,0,8021,12514,0,0,0,11878,494,1850,2094,5693,0,0,2096,6722,0,5908,0,0,0,0,0,0,0,0,0,0,0,0,0,0,0,0,0,0,0,0],"split_type":[0,0,0,0,0,0,0,0,0,0,0,0,0,0,0,0,0,0,0,0,0,0,0,0,0,0,0,0,0,0,0,0,0,0,0,0,0,0,0,0,0,0,0,0,0,0,0,0,0,0,0,0,0,0,0,0,0,0,0,0,0,0,0,0,0],"sum_hessian":[1.0627753E3,5.637843E2,4.9899103E2,5.359108E2,2.787344E1,4.269012E2,7.2089806E1,4.3254263E2,1.0336821E2,4.8453393E0,2.3028101E1,6.2812206E1,3.6408902E2,6.862414E1,3.4656682E0,4.28172E2,4.3706474E0,2.788975E1,7.547846E1,2.1195805E1,1.8322965E0,5.1661034E1,1.1151172E1,3.4113025E2,2.2958773E1,1.0409976E0,6.758314E1,2.2755256E0,1.1901425E0,4.1841998E2,9.752014E0,1.5846177E0,2.7860296E0,6.0301404E0,2.185961E1,7.06253E1,4.853166E0,5.9975777E0,4.566346E1,2.9494097E0,8.201762E0,9.632682E0,3.3149756E2,6.4803176E0,1.6478455E1,2.332579E0,4.160874E2,6.604512E0,3.1475017E0,1.5460999E0,2.0313509E1,6.938691E1,1.2383895E0,1.2177191E0,3.635447E0,2.4075375E0,3.5900402E0,1.8490977E0,4.381436E1,1.3550392E0,8.277643E0,3.226303E2,8.867269E0,1.5381784E1,1.0966705E0],"tree_param":{"num_deleted":"0","num_feature":"16384","num_nodes":"65","size_leaf_vector":"1"}},{"base_weights":[7.646576E-2,9.8686004E-1,-1.9846058E-1,-5.8008682E-2,1.0909063E0,5.2231625E-2,-5.5925393E-1,1.106789E0,-2.1407191E-1,-3.0559996E-1,3.3441907E-1,-2.6700988E-1,-6.1049753E-1,1.1155815E0,-3.500643E-2,-3.8272418E-2,7.4775405E-3,1.1290899E-3,-4.7704265E-1,7.184478E-1,-1.329936E-1,-4.2932308E-1,4.4306353E-1,1.33000305E-2,-6.1389245E-2,1.12314835E-1,-2.2039486E-3,-1.0858568E-1,1.1006428E0,2.792445E-2,-5.373491E-1,5.6205712E-2,9.4726366E-1,8.0543196E-1,-2.879151E-1,6.0491323E-1,-5.32154E-1,1.0995008E-1,-4.9407013E-2,1.2419495E-2,-5.711261E-2,1.392098E-1,-2.1539906E-4,6.630256E-2,-4.5909856E-2,5.4635514E-2,-5.5992078E-2,1.123657E-1,-2.3358734E-2,1.1452376E-1,4.4351555E-2,-5.2137226E-2,1.2272221E-1,6.9386855E-2,-3.8849436E-2,9.335649E-2,-1.1731898E-3,-6.024459E-2,2.9361654E-2],"categories":[],"categories_nodes":[],"categories_segments":[],"categories_sizes":[],"default_left":[0,0,0,0,0,0,0,0,0,0,0,0,0,0,0,0,0,0,0,0,0,0,0,0,0,0,0,0,0,0,0,0,0,0,0,0,0,0,0,0,0,0,0,0,0,0,0,0,0,0,0,0,0,0,0,0,0,0,0],"id":16,"left_children":[1,3,5,-1,7,9,11,13,15,17,19,21,23,25,-1,-1,-1,27,29,31,33,35,37,-1,-1,-1,-1,39,41,43,45,47,49,51,53,55,57,-1,-1,-1,-1,-1,-1,-1,-1,-1,-1,-1,-1,-1,-1,-1,-1,-1,-1,-1,-1,-1,-1],"loss_changes":[2.6222144E2,4.024768E1,7.283071E1,0E0,4.966797E0,4.814908E1,4.7800217E0,3.2805786E0,2.0311192E-1,1.1060352E1,4.7934044E1,6.070422E0,7.885208E-1,1.9573059E0,0E0,0E0,0E0,9.33637E0,4.1234684E0,2.2140244E1,1.7830242E1,4.792371E0,6.6854606E0,0E0,0E0,0E0,0E0,7.6490073E0,2.2599945E0,5.0503716E0,3.2551422E0,1.2225585E1,1.03414E1,1.0386015E1,1.0601806E1,8.7620187E-1,2.427021E0,0E0,0E0,0E0,0E0,0E0,0E0,0E0,0E0,0E0,0E0,0E0,0E0,0E0,0E0,0E0,0E0,0E0,0E0,0E0,0E0,0E0,0E0],"parents":[2147483647,0,0,1,1,2,2,4,4,5,5,6,6,7,7,8,8,9,9,10,10,11,11,12,12,13,13,17,17,18,18,19,19,20,20,21,21,22,22,27,27,28,28,29,29,30,30,31,31,32,32,33,33,34,34,35,35,36,36],"right_children":[2,4,6,-1,8,10,12,14,16,18,20,22,24,26,-1,-1,-1,28,30,32,34,36,38,-1,-1,-1,-1,40,42,44,46,48,50,52,54,56,58,-1,-1,-1,-1,-1,-1,-1,-1,-1,-1,-1,-1,-1,-1,-1,-1,-1,-1,-1,-1,-1,-1],"split_conditions":[1E0,2E0,5E0,-5.8008682E-2,5E0,3E0,6E0,1.62E2,4E0,6.9E1,2E0,8E0,6E0,5E0,-3.500643E-2,-3.8272418E-2,7.4775405E-3,1.56E2,4E1,2E0,4.2E1,4E0,7E1,1.33000305E-2,-6.1389245E-2,1.12314835E-1,-2.2039486E-3,7E1,7.9E1,7.2E1,2.8E1,4.3E1,2E0,2.3E1,1E0,1E0,1.2E1,1.0995008E-1,-4.9407013E-2,1.2419495E-2,-5.711261E-2,1.392098E-1,-2.1539906E-4,6.630256E-2,-4.5909856E-2,5.4635514E-2,-5.5992078E-2,1.123657E-1,-2.3358734E-2,1.1452376E-1,4.4351555E-2,-5.2137226E-2,1.2272221E-1,6.9386855E-2,-3.8849436E-2,9.335649E-2,-1.1731898E-3,-6.024459E-2,2.9361654E-2],"split_indices":[10736,3563,815,0,1131,772,1569,14259,472,7509,11267,16366,9883,861,0,0,0,5089,12352,768,12768,15049,8494,0,0,0,0,13992,3641,12851,7767,6580,9086,2994,5119,668,11262,0,0,0,0,0,0,0,0,0,0,0,0,0,0,0,0,0,0,0,0,0,0],"split_type":[0,0,0,0,0,0,0,0,0,0,0,0,0,0,0,0,0,0,0,0,0,0,0,0,0,0,0,0,0,0,0,0,0,0,0,0,0,0,0,0,0,0,0,0,0,0,0,0,0,0,0,0,0,0,0,0,0,0,0],"sum_hessian":[1.0458821E3,2.41984E2,8.0389813E2,1.4782512E1,2.2720148E2,4.748267E2,3.2907144E2,2.2461954E2,2.5819454E0,2.0931679E2,2.6550992E2,5.0019405E1,2.7905203E2,2.2350487E2,1.1146715E0,1.4249439E0,1.1570016E0,7.5404175E1,1.3391261E2,1.4546118E2,1.2004874E2,4.1034786E1,8.984616E0,1.0948672E0,2.7795718E2,2.2204073E2,1.4641453E0,6.938213E1,6.022041E0,1.4343815E1,1.19568794E2,3.7673027E1,1.0778815E2,1.6415302E1,1.0363344E2,3.2694318E0,3.7765354E1,5.181708E0,3.8029082E0,4.664088E1,2.2741251E1,4.555694E0,1.4663467E0,6.0686383E0,8.275177E0,1.9661274E0,1.1760267E2,7.429405E0,3.0243624E1,7.6464165E1,3.1323984E1,3.9026954E0,1.2512608E1,9.082057E0,9.455138E1,1.7974879E0,1.4719441E0,3.505207E1,2.7132864E0],"tree_param":{"num_deleted":"0","num_feature":"16384","num_nodes":"59","size_leaf_vector":"1"}},{"base_weights":[7.8083E-2,-5.4628253E-1,2.0467816E-1,-5.8092064E-1,5.670254E-1,6.04348E-1,-1.5912975E-1,-6.0646003E-1,-5.7321846E-2,1.0094919E-1,-3.836796E-2,8.9197946E-1,3.12111E-1,-3.461408E-1,2.0445302E-1,1.5074818E-2,-6.121703E-2,-5.274508E-2,6.898093E-1,9.303337E-1,-5.4388214E-2,1.578427E-2,7.624005E-1,2.8553864E-1,-4.3498242E-1,7.7518344E-1,-2.6504887E-2,8.8403195E-2,1.0120968E-2,9.594573E-1,-3.551435E-1,-1.7628738E-1,6.3344675E-1,8.9413697E-1,-1.7323849E-1,-3.116003E-1,8.4482E-1,-4.7189802E-1,7.4014837E-1,-2.3729008E-1,9.902483E-1,-2.5389048E-1,7.388256E-1,6.6671774E-2,1.08960785E-1,-4.997524E-2,1.0185259E-2,-4.02747E-2,4.010237E-2,-4.4652414E-2,9.3976274E-2,1.0318553E-1,-8.475152E-4,6.733458E-2,-5.7399597E-2,5.8628615E-2,-5.950438E-2,-3.7081294E-2,1.2237086E-1,-4.9160298E-2,9.888393E-2,1.16627194E-1,-4.2562593E-2,-5.5919178E-2,9.483505E-2,1.1194128E-1,-4.7284495E-2,-3.7308957E-2,6.440266E-2,-3.5264175E-2,9.801968E-2],"categories":[],"categories_nodes":[],"categories_segments":[],"categories_sizes":[],"default_left":[0,0,0,0,0,0,0,0,0,0,0,0,0,0,0,0,0,0,0,0,0,0,0,0,0,0,0,0,0,0,0,0,0,0,0,0,0,0,0,0,0,0,0,0,0,0,0,0,0,0,0,0,0,0,0,0,0,0,0,0,0,0,0,0,0,0,0,0,0,0,0],"id":17,"left_children":[1,3,5,7,9,11,13,15,17,-1,-1,19,21,23,25,-1,-1,-1,27,29,-1,31,33,35,37,39,41,-1,-1,43,45,47,49,51,53,55,57,59,61,63,65,67,69,-1,-1,-1,-1,-1,-1,-1,-1,-1,-1,-1,-1,-1,-1,-1,-1,-1,-1,-1,-1,-1,-1,-1,-1,-1,-1,-1,-1],"loss_changes":[8.359094E1,7.2057076E0,1.2788025E2,2.2843819E0,2.8635116E0,3.4939774E1,3.140546E1,8.068352E-1,3.5848513E0,0E0,0E0,1.2104904E1,2.7924164E1,1.7223156E1,2.0736044E1,0E0,0E0,0E0,3.6494815E-1,8.034424E0,0E0,1.5212871E1,1.0394474E1,1.3011633E1,1.1954311E1,1.01007E1,1.9825985E1,0E0,0E0,6.9401855E0,4.000064E-1,1.2958018E1,1.0480127E1,9.081047E0,4.149337E0,5.2332115E0,9.656563E0,7.9692993E0,4.737343E0,3.8678007E0,7.6280365E0,9.631607E0,7.222742E0,0E0,0E0,0E0,0E0,0E0,0E0,0E0,0E0,0E0,0E0,0E0,0E0,0E0,0E0,0E0,0E0,0E0,0E0,0E0,0E0,0E0,0E0,0E0,0E0,0E0,0E0,0E0,0E0],"parents":[2147483647,0,0,1,1,2,2,3,3,4,4,5,5,6,6,7,7,8,8,11,11,12,12,13,13,14,14,18,18,19,19,21,21,22,22,23,23,24,24,25,25,26,26,29,29,30,30,31,31,32,32,33,33,34,34,35,35,36,36,37,37,38,38,39,39,40,40,41,41,42,42],"right_children":[2,4,6,8,10,12,14,16,18,-1,-1,20,22,24,26,-1,-1,-1,28,30,-1,32,34,36,38,40,42,-1,-1,44,46,48,50,52,54,56,58,60,62,64,66,68,70,-1,-1,-1,-1,-1,-1,-1,-1,-1,-1,-1,-1,-1,-1,-1,-1,-1,-1,-1,-1,-1,-1,-1,-1,-1,-1,-1,-1],"split_conditions":[2E0,1.75E2,9E0,3E0,1.36E2,1.2E1,8.3E1,1.3E1,8E1,1.0094919E-1,-3.836796E-2,1.36E2,2E0,1E1,7E0,1.5074818E-2,-6.121703E-2,-5.274508E-2,1.07E2,5E0,-5.4388214E-2,2E0,7E0,1E1,1.32E2,5.6E1,7.8E1,8.8403195E-2,1.0120968E-2,7.3E1,9.3E1,9.8E1,5.8E1,9.4E1,7E0,4.6E1,1.7E1,3.9E1,6.4E1,7E0,1.67E2,1.26E2,7.8E1,6.6671774E-2,1.08960785E-1,-4.997524E-2,1.0185259E-2,-4.02747E-2,4.010237E-2,-4.4652414E-2,9.3976274E-2,1.0318553E-1,-8.475152E-4,6.733458E-2,-5.7399597E-2,5.8628615E-2,-5.950438E-2,-3.7081294E-2,1.2237086E-1,-4.9160298E-2,9.888393E-2,1.16627194E-1,-4.2562593E-2,-5.5919178E-2,9.483505E-2,1.1194128E-1,-4.7284495E-2,-3.7308957E-2,6.440266E-2,-3.5264175E-2,9.801968E-2],"split_indices":[10993,3908,5394,10992,3508,8084,13231,5552,4699,0,0,14925,4995,10605,13423,0,0,0,2365,16381,0,136,6788,14615,5966,9535,15936,0,0,6992,2124,12253,5704,14641,7949,6546,12132,6786,3554,1284,9672,1987,4701,0,0,0,0,0,0,0,0,0,0,0,0,0,0,0,0,0,0,0,0,0,0,0,0,0,0,0,0],"split_type":[0,0,0,0,0,0,0,0,0,0,0,0,0,0,0,0,0,0,0,0,0,0,0,0,0,0,0,0,0,0,0,0,0,0,0,0,0,0,0,0,0,0,0,0,0,0,0,0,0,0,0,0,0,0,0,0,0,0,0,0,0,0,0,0,0,0,0,0,0,0,0],"sum_hessian":[1.0551409E3,1.7731429E2,8.7782666E2,1.7242778E2,4.886508E0,4.1798172E2,4.598449E2,1.642576E2,8.17019E0,3.2923737E0,1.5941346E0,2.0961647E2,2.0836525E2,3.0368872E2,1.561562E2,1.0393147E0,1.6321828E2,5.1951785E0,2.9750109E0,2.0450587E2,5.1106076E0,1.26290794E2,8.207445E1,3.7172398E1,2.6651633E2,4.4308098E1,1.1184811E2,1.8594999E0,1.115511E0,2.0022325E2,4.282615E0,9.687929E1,2.9411512E1,7.198362E1,1.0090825E1,1.8191923E1,1.8980473E1,2.5897916E2,7.5371494E0,7.7446795E0,3.656342E1,8.674404E1,2.5104063E1,6.350594E1,1.3671732E2,3.1821246E0,1.1004906E0,6.980106E1,2.707822E1,6.3976707E0,2.3013842E1,6.233025E1,9.653373E0,3.023538E0,7.0672865E0,4.108538E0,1.4083385E1,4.5151854E0,1.4465287E1,2.5618674E2,2.79244E0,5.519272E0,2.0178773E0,6.5065207E0,1.2381586E0,3.3813225E1,2.750193E0,7.709422E1,9.649817E0,4.4627504E0,2.0641312E1],"tree_param":{"num_deleted":"0","num_feature":"16384","num_nodes":"71","size_leaf_vector":"1"}},{"base_weights":[-2.5300652E-1,-4.6271944E-1,7.539455E-1,7.4774534E-1,-5.727353E-1,8.1560326E-1,-4.5205516E-1,8.8831425E-1,-2.5187725E-1,-5.9094E-1,9.128449E-1,9.1576326E-1,1.945166E-1,-5.4918945E-2,1.1697265E-2,9.5833945E-1,-4.7552243E-2,-5.4821324E-2,7.880559E-2,-5.971556E-1,9.052697E-2,1.1032613E-1,-3.189572E-2,9.711118E-1,-1.0821787E-1,6.1373323E-1,-5.8786314E-2,1.0256114E0,-2.322128E-1,9.058713E-2,-6.0228366E-1,1.0072167E0,-2.9402655E-1,7.8946404E-2,-5.3868987E-2,-4.5960993E-2,8.2794493E-1,1.0719415E-1,-3.844901E-2,-3.9975125E-2,8.885938E-3,-6.0732603E-2,8.4245645E-2,-4.3888982E-2,1.03530966E-1,-4.5304265E-2,7.902714E-3,-4.0678423E-2,1.0211122E-1],"categories":[],"categories_nodes":[],"categories_segments":[],"categories_sizes":[],"default_left":[0,0,0,0,0,0,0,0,0,0,0,0,0,0,0,0,0,0,0,0,0,0,0,0,0,0,0,0,0,0,0,0,0,0,0,0,0,0,0,0,0,0,0,0,0,0,0,0,0],"id":18,"left_children":[1,3,5,7,9,11,13,15,17,19,21,23,25,-1,-1,27,-1,-1,-1,29,-1,-1,-1,31,33,35,-1,37,39,-1,41,43,45,-1,-1,-1,47,-1,-1,-1,-1,-1,-1,-1,-1,-1,-1,-1,-1],"loss_changes":[2.0214511E2,1.05834076E2,1.2645073E1,9.550983E0,2.0177383E1,9.614761E0,5.4364157E-1,6.0345993E0,3.1940205E0,7.217346E0,2.5059266E0,7.772827E0,7.9474397E0,0E0,0E0,4.7148094E0,0E0,0E0,0E0,6.061035E0,0E0,0E0,0E0,6.1636124E0,3.4539042E0,3.9558764E0,0E0,3.8805237E0,2.4018873E-1,0E0,5.711212E0,5.5372467E0,2.9314977E-1,0E0,0E0,0E0,3.592331E0,0E0,0E0,0E0,0E0,0E0,0E0,0E0,0E0,0E0,0E0,0E0,0E0],"parents":[2147483647,0,0,1,1,2,2,3,3,4,4,5,5,6,6,7,7,8,8,9,9,10,10,11,11,12,12,15,15,19,19,23,23,24,24,25,25,27,27,28,28,30,30,31,31,32,32,36,36],"right_children":[2,4,6,8,10,12,14,16,18,20,22,24,26,-1,-1,28,-1,-1,-1,30,-1,-1,-1,32,34,36,-1,38,40,-1,42,44,46,-1,-1,-1,48,-1,-1,-1,-1,-1,-1,-1,-1,-1,-1,-1,-1],"split_conditions":[1E0,2E0,7.4E1,1.59E2,6E0,1.19E2,1.15E2,2.07E2,2.37E2,2.21E2,3.7E1,5.1E1,1.08E2,-5.4918945E-2,1.1697265E-2,2E0,-4.7552243E-2,-5.4821324E-2,7.880559E-2,1E0,9.052697E-2,1.1032613E-1,-3.189572E-2,2.16E2,6.9E1,6E1,-5.8786314E-2,1.45E2,2E0,9.058713E-2,2.08E2,2.2E1,8.7E1,7.8946404E-2,-5.3868987E-2,-4.5960993E-2,4E0,1.0719415E-1,-3.844901E-2,-3.9975125E-2,8.885938E-3,-6.0732603E-2,8.4245645E-2,-4.3888982E-2,1.03530966E-1,-4.5304265E-2,7.902714E-3,-4.0678423E-2,1.0211122E-1],"split_indices":[8449,1431,3085,10894,26,15410,1104,2874,3816,12828,592,13304,2235,0,0,15623,0,0,0,1065,0,0,0,1096,8632,10905,0,12091,816,0,14899,5823,695,0,0,0,15270,0,0,0,0,0,0,0,0,0,0,0,0],"split_type":[0,0,0,0,0,0,0,0,0,0,0,0,0,0,0,0,0,0,0,0,0,0,0,0,0,0,0,0,0,0,0,0,0,0,0,0,0,0,0,0,0,0,0,0,0,0,0,0,0],"sum_hessian":[9.546065E2,7.905111E2,1.6409537E2,6.5378494E1,7.251326E2,1.5642189E2,7.673477E0,5.74159E1,7.962589E0,7.1694916E2,8.183476E0,1.3429092E2,2.2130974E1,6.584374E0,1.089103E0,5.4894695E1,2.5212064E0,6.564755E0,1.3978336E0,7.1458154E2,2.367636E0,7.1781964E0,1.0052801E0,1.274534E2,6.837517E0,1.4550203E1,7.5807695E0,5.2089905E1,2.8047912E0,1.8324946E0,7.12749E2,1.2411523E2,3.3381734E0,1.9458343E0,4.8916826E0,2.2301388E0,1.2320065E1,5.0665073E1,1.4248323E0,1.6820375E0,1.1227537E0,7.108477E2,1.9013252E0,2.0865366E0,1.22028694E2,2.1901808E0,1.1479926E0,1.5170683E0,1.0802997E1],"tree_param":{"num_deleted":"0","num_feature":"16384","num_nodes":"49","size_leaf_vector":"1"}},{"base_weights":[7.579967E-2,-3.8064396E-1,6.0503775E-1,-4.5112014E-1,8.1397164E-1,7.9040337E-1,-5.169074E-1,-5.851217E-1,-1.5904287E-1,-5.2731242E-2,1.0532098E0,3.8316227E-3,9.459656E-1,-5.943673E-1,7.2082937E-1,-6.024523E-1,2.4580263E-2,6.586501E-1,-4.2557102E-1,1.1473139E-1,-3.8297676E-2,-4.5722938E-1,4.6586862E-1,9.810335E-1,-4.7520992E-1,-6.0881555E-2,1.6083442E-2,9.3931E-2,6.0654357E-3,-6.130172E-1,2.2353765E-1,8.5125804E-1,-5.3294953E-2,-4.318483E-1,1.0984564E0,-5.2591693E-1,7.6596045E-1,-6.117436E-2,3.5574937E-1,-4.876412E-1,7.586511E-1,3.8453344E-1,1.0578662E0,-5.696693E-2,1.1980274E-2,-6.1588384E-2,2.782813E-3,-4.3609273E-2,9.614459E-2,1.1360484E-2,1.0350734E-1,-5.7090648E-2,4.7865175E-2,1.1858638E-1,-3.8549688E-2,5.2705962E-2,-5.6946423E-2,-4.466228E-2,1.1791084E-1,1.01013295E-1,-4.4581994E-2,-5.8138806E-2,9.273276E-3,9.9630006E-2,-2.4459733E-2,7.5430915E-2,-4.7184136E-2,1.0735971E-1,-4.967034E-2],"categories":[],"categories_nodes":[],"categories_segments":[],"categories_sizes":[],"default_left":[0,0,0,0,0,0,0,0,0,0,0,0,0,0,0,0,0,0,0,0,0,0,0,0,0,0,0,0,0,0,0,0,0,0,0,0,0,0,0,0,0,0,0,0,0,0,0,0,0,0,0,0,0,0,0,0,0,0,0,0,0,0,0,0,0,0,0,0,0],"id":19,"left_children":[1,3,5,7,9,11,13,15,17,-1,19,21,23,25,27,29,31,33,35,-1,-1,37,39,41,43,-1,-1,-1,-1,45,47,49,-1,51,53,55,57,-1,59,61,63,65,67,-1,-1,-1,-1,-1,-1,-1,-1,-1,-1,-1,-1,-1,-1,-1,-1,-1,-1,-1,-1,-1,-1,-1,-1,-1,-1],"loss_changes":[2.5281711E2,4.7685806E1,1.01187546E2,2.0703972E1,1.0716717E1,5.0931488E1,7.073967E0,3.8597412E0,3.7000175E1,0E0,4.1164303E0,1.5068935E1,1.7786407E1,8.156681E-1,5.970299E-1,3.2249756E0,5.5318847E0,2.0527212E1,1.5668533E1,0E0,0E0,4.665735E0,1.0232235E1,1.5152283E1,5.764847E-1,0E0,0E0,0E0,0E0,6.595001E-1,2.9511902E0,5.363536E-1,0E0,1.8855693E0,4.358349E0,5.7271004E0,5.6988525E0,0E0,3.7483444E0,5.385742E-1,6.781005E0,1.3120617E1,7.874115E0,0E0,0E0,0E0,0E0,0E0,0E0,0E0,0E0,0E0,0E0,0E0,0E0,0E0,0E0,0E0,0E0,0E0,0E0,0E0,0E0,0E0,0E0,0E0,0E0,0E0,0E0],"parents":[2147483647,0,0,1,1,2,2,3,3,4,4,5,5,6,6,7,7,8,8,10,10,11,11,12,12,13,13,14,14,15,15,16,16,17,17,18,18,21,21,22,22,23,23,24,24,29,29,30,30,31,31,33,33,34,34,35,35,36,36,38,38,39,39,40,40,41,41,42,42],"right_children":[2,4,6,8,10,12,14,16,18,-1,20,22,24,26,28,30,32,34,36,-1,-1,38,40,42,44,-1,-1,-1,-1,46,48,50,-1,52,54,56,58,-1,60,62,64,66,68,-1,-1,-1,-1,-1,-1,-1,-1,-1,-1,-1,-1,-1,-1,-1,-1,-1,-1,-1,-1,-1,-1,-1,-1,-1,-1],"split_conditions":[5E0,2.6E1,2E0,1.7E1,1.7E1,1E1,1.03E2,1.28E2,5E0,-5.2731242E-2,9.3E1,7.1E1,1.06E2,1.98E2,5.8E1,1.93E2,4.8E1,3E0,7E0,1.1473139E-1,-3.8297676E-2,1.02E2,5.9E1,8E0,1.13E2,-6.0881555E-2,1.6083442E-2,9.3931E-2,6.0654357E-3,2.3E2,2E0,3E0,-5.3294953E-2,8E1,1E2,1.4E1,3.4E1,-6.117436E-2,6.6E1,8E0,8.2E1,6.2E1,1.59E2,-5.696693E-2,1.1980274E-2,-6.1588384E-2,2.782813E-3,-4.3609273E-2,9.614459E-2,1.1360484E-2,1.0350734E-1,-5.7090648E-2,4.7865175E-2,1.1858638E-1,-3.8549688E-2,5.2705962E-2,-5.6946423E-2,-4.466228E-2,1.1791084E-1,1.01013295E-1,-4.4581994E-2,-5.8138806E-2,9.273276E-3,9.9630006E-2,-2.4459733E-2,7.5430915E-2,-4.7184136E-2,1.0735971E-1,-4.967034E-2],"split_indices":[1643,13828,6017,3739,16227,4884,14075,15037,14757,0,3527,4124,6606,11458,309,14409,6106,1646,2808,0,0,4577,10839,10224,2745,0,0,0,0,7833,664,1875,0,1098,8634,13104,1471,0,8521,1547,12499,11231,13039,0,0,0,0,0,0,0,0,0,0,0,0,0,0,0,0,0,0,0,0,0,0,0,0,0,0],"split_type":[0,0,0,0,0,0,0,0,0,0,0,0,0,0,0,0,0,0,0,0,0,0,0,0,0,0,0,0,0,0,0,0,0,0,0,0,0,0,0,0,0,0,0,0,0,0,0,0,0,0,0,0,0,0,0,0,0,0,0,0,0,0,0,0,0,0,0,0,0],"sum_hessian":[1.0446166E3,5.6103253E2,4.835841E2,5.30366E2,3.0666498E1,4.152696E2,6.831454E1,3.6287845E2,1.6748758E2,4.4596167E0,2.620688E1,6.8737206E1,3.4653238E2,6.478026E1,3.5342755E0,3.5286035E2,1.0018085E1,4.0810894E1,1.2667668E2,2.4784079E1,1.422802E0,3.441015E1,3.4327057E1,3.3848975E2,8.042629E0,6.375437E1,1.0258901E0,2.3377821E0,1.1964933E0,3.4865866E2,4.201701E0,3.8228745E0,6.1952095E0,1.1734165E1,2.907673E1,1.1735236E2,9.324315E0,2.9122648E1,5.2875023E0,7.907857E0,2.64192E1,3.9309605E1,2.9918015E2,6.977526E0,1.0651027E0,3.4714474E2,1.5139033E0,2.434484E0,1.7672173E0,1.0853578E0,2.7375166E0,1.0503039E1,1.2311258E0,2.764903E1,1.4277003E0,4.219576E0,1.1313279E2,2.3490021E0,6.9753127E0,2.7677653E0,2.5197368E0,6.806644E0,1.1012131E0,2.1365158E1,5.054042E0,2.7538073E1,1.1771532E1,2.9648932E2,2.6908236E0],"tree_param":{"num_deleted":"0","num_feature":"16384","num_nodes":"69","size_leaf_vector":"1"}},{"base_weights":[7.243659E-2,9.0175474E-1,-1.8904386E-1,-5.645591E-2,9.8985845E-1,5.1493805E-2,-5.4786736E-1,1.0099537E0,5.697527E-2,-2.9390004E-1,3.1432956E-1,-2.5641078E-1,-6.003271E-1,1.0207801E0,-3.9171375E-2,-4.738408E-2,7.479059E-2,-4.8951615E-2,-4.8282796E-1,6.588529E-1,-1.345807E-1,-4.171833E-1,4.24681E-1,1.3668711E-2,-6.038913E-2,2.8894639E-2,1.0241675E-1,-2.685779E-1,5.1385283E-1,2.7494124E-1,-5.193766E-1,2.2365226E-1,9.1886365E-1,1.6861616E-1,-5.6989396E-1,5.299789E-1,-5.209957E-1,1.02237634E-1,-4.821683E-2,-5.4603886E-2,2.8774247E-2,1.0041889E-1,-3.7056204E-2,1.0428595E-1,-4.5104895E-2,1.3924612E-3,-5.6619644E-2,6.160255E-2,-2.7155971E-2,1.0026532E-1,6.2722847E-4,7.422327E-2,-1.5141854E-2,-6.0988612E-2,5.846266E-2,9.310201E-2,-3.283438E-2,6.154527E-2,-5.9417844E-2],"categories":[],"categories_nodes":[],"categories_segments":[],"categories_sizes":[],"default_left":[0,0,0,0,0,0,0,0,0,0,0,0,0,0,0,0,0,0,0,0,0,0,0,0,0,0,0,0,0,0,0,0,0,0,0,0,0,0,0,0,0,0,0,0,0,0,0,0,0,0,0,0,0,0,0,0,0,0,0],"id":20,"left_children":[1,3,5,-1,7,9,11,13,15,17,19,21,23,25,-1,-1,-1,27,29,31,33,35,37,-1,-1,-1,-1,39,41,43,45,47,49,51,53,55,57,-1,-1,-1,-1,-1,-1,-1,-1,-1,-1,-1,-1,-1,-1,-1,-1,-1,-1,-1,-1,-1,-1],"loss_changes":[2.2224377E2,3.2295273E1,6.7300674E1,0E0,4.293564E0,4.253622E1,4.630028E0,3.8467712E0,2.538083E0,9.350101E0,4.1225464E1,5.5944157E0,7.771301E-1,2.6350403E-1,0E0,0E0,0E0,1.1177756E1,3.3067493E0,1.6842415E1,1.5449271E1,4.2612E0,5.8824472E0,0E0,0E0,0E0,0E0,1.017493E1,1.1392876E1,3.765429E0,2.737772E0,1.1372627E1,7.1806717E0,1.2841447E1,2.5721397E0,1.8543707E0,3.4453945E0,0E0,0E0,0E0,0E0,0E0,0E0,0E0,0E0,0E0,0E0,0E0,0E0,0E0,0E0,0E0,0E0,0E0,0E0,0E0,0E0,0E0,0E0],"parents":[2147483647,0,0,1,1,2,2,4,4,5,5,6,6,7,7,8,8,9,9,10,10,11,11,12,12,13,13,17,17,18,18,19,19,20,20,21,21,22,22,27,27,28,28,29,29,30,30,31,31,32,32,33,33,34,34,35,35,36,36],"right_children":[2,4,6,-1,8,10,12,14,16,18,20,22,24,26,-1,-1,-1,28,30,32,34,36,38,-1,-1,-1,-1,40,42,44,46,48,50,52,54,56,58,-1,-1,-1,-1,-1,-1,-1,-1,-1,-1,-1,-1,-1,-1,-1,-1,-1,-1,-1,-1,-1,-1],"split_conditions":[1E0,2E0,5E0,-5.645591E-2,1E0,3E0,6E0,1.62E2,1E0,7.3E1,1E0,8E0,6E0,2E0,-3.9171375E-2,-4.738408E-2,7.479059E-2,7.6E1,5E0,4E0,3E1,3.2E1,7E1,1.3668711E-2,-6.038913E-2,2.8894639E-2,1.0241675E-1,2E0,8.4E1,8.2E1,2.9E1,7.4E1,6.6E1,6.7E1,1.32E2,6.1E1,2.4E1,1.02237634E-1,-4.821683E-2,-5.4603886E-2,2.8774247E-2,1.0041889E-1,-3.7056204E-2,1.0428595E-1,-4.5104895E-2,1.3924612E-3,-5.6619644E-2,6.160255E-2,-2.7155971E-2,1.0026532E-1,6.2722847E-4,7.422327E-2,-1.5141854E-2,-6.0988612E-2,5.846266E-2,9.310201E-2,-3.283438E-2,6.154527E-2,-5.9417844E-2],"split_indices":[8432,2582,815,0,4623,772,1569,14259,19,4662,5251,16366,9883,2129,0,0,0,9494,3129,12415,15635,8403,8494,0,0,0,0,351,12576,7972,12224,9524,16045,9546,7084,1339,10443,0,0,0,0,0,0,0,0,0,0,0,0,0,0,0,0,0,0,0,0,0,0],"split_type":[0,0,0,0,0,0,0,0,0,0,0,0,0,0,0,0,0,0,0,0,0,0,0,0,0,0,0,0,0,0,0,0,0,0,0,0,0,0,0,0,0,0,0,0,0,0,0,0,0,0,0,0,0,0,0,0,0,0,0],"sum_hessian":[1.02308484E3,2.446615E2,7.7842334E2,1.3560792E1,2.3110071E2,4.665366E2,3.1188675E2,2.2614664E2,4.9540634E0,2.0155453E2,2.6498206E2,4.847217E1,2.6341458E2,2.2468295E2,1.4636841E0,2.9793441E0,1.9747194E0,8.831353E1,1.13241E2,1.4965742E2,1.1532464E2,3.9528824E1,8.943349E0,1.0879934E0,2.623266E2,1.4327636E0,2.232502E2,6.3900196E1,2.4413338E1,4.9103894E0,1.08330605E2,5.6667946E1,9.298947E1,6.8339E1,4.6985645E1,3.499052E0,3.6029774E1,5.3137293E0,3.6296194E0,4.2648186E1,2.1252008E1,1.5618645E1,8.794694E0,2.1741796E0,2.7362096E0,8.799751E0,9.953085E1,3.1480732E1,2.5187216E1,8.507924E1,7.910234E0,2.4001143E1,4.4337852E1,4.5868515E1,1.1171285E0,2.3270624E0,1.1719896E0,1.7315089E0,3.4298264E1],"tree_param":{"num_deleted":"0","num_feature":"16384","num_nodes":"59","size_leaf_vector":"1"}},{"base_weights":[7.519072E-2,-5.33812E-1,1.9281238E-1,-5.692039E-1,5.353936E-1,5.5419785E-1,-1.4891194E-1,-5.954109E-1,-5.4201692E-2,9.368506E-2,-3.723566E-2,8.117882E-1,2.881375E-1,-3.317308E-1,1.9540125E-1,1.5848046E-2,-6.013863E-2,-5.1789124E-2,6.5222526E-1,8.4566706E-1,-5.327316E-2,-1.4190476E-1,5.4802895E-1,2.649272E-1,-4.194413E-1,7.139233E-1,-2.2134837E-2,8.308539E-2,9.495851E-3,-3.207183E-2,8.828093E-1,4.7116327E-1,-3.8132295E-1,3.6898473E-1,1.051936E0,-4.5656896E-1,6.6775095E-1,-4.5630723E-1,6.882328E-1,-2.1836942E-1,8.9934397E-1,-2.400117E-1,6.752897E-1,-5.689775E-2,8.714974E-2,9.4391465E-2,2.7374465E-2,1.0063439E-1,-3.2872275E-2,-5.1259678E-2,6.7754455E-2,5.0459415E-2,-2.8730739E-2,1.2062436E-1,-1.6505504E-2,-5.8540262E-2,5.3570367E-2,9.071327E-2,-3.7185404E-2,-4.7924347E-2,7.6225325E-2,1.0675378E-1,-4.1352965E-2,-5.447603E-2,9.0406045E-2,1.031276E-1,-3.1002378E-2,-3.998554E-2,3.9902877E-2,-3.406426E-2,8.870846E-2],"categories":[],"categories_nodes":[],"categories_segments":[],"categories_sizes":[],"default_left":[0,0,0,0,0,0,0,0,0,0,0,0,0,0,0,0,0,0,0,0,0,0,0,0,0,0,0,0,0,0,0,0,0,0,0,0,0,0,0,0,0,0,0,0,0,0,0,0,0,0,0,0,0,0,0,0,0,0,0,0,0,0,0,0,0,0,0,0,0,0,0],"id":21,"left_children":[1,3,5,7,9,11,13,15,17,-1,-1,19,21,23,25,-1,-1,-1,27,29,-1,31,33,35,37,39,41,-1,-1,43,45,47,49,51,53,55,57,59,61,63,65,67,69,-1,-1,-1,-1,-1,-1,-1,-1,-1,-1,-1,-1,-1,-1,-1,-1,-1,-1,-1,-1,-1,-1,-1,-1,-1,-1,-1,-1],"loss_changes":[7.449693E1,6.676502E0,1.07668E2,2.174034E0,2.5027022E0,2.8798767E1,2.830017E1,7.9561615E-1,3.291054E0,0E0,0E0,1.02296295E1,2.3540955E1,1.5463608E1,1.7634417E1,0E0,0E0,0E0,3.2081032E-1,6.8678894E0,0E0,1.1903637E1,1.1436287E1,1.1410291E1,1.0774033E1,8.181591E0,1.7029476E1,0E0,0E0,5.09598E0,7.233917E0,1.0125299E1,8.408674E0,8.888376E0,6.549946E0,2.1396616E0,6.5406218E0,7.310692E0,4.0560484E0,3.594647E0,6.498493E0,8.8745775E0,6.0440807E0,0E0,0E0,0E0,0E0,0E0,0E0,0E0,0E0,0E0,0E0,0E0,0E0,0E0,0E0,0E0,0E0,0E0,0E0,0E0,0E0,0E0,0E0,0E0,0E0,0E0,0E0,0E0,0E0],"parents":[2147483647,0,0,1,1,2,2,3,3,4,4,5,5,6,6,7,7,8,8,11,11,12,12,13,13,14,14,18,18,19,19,21,21,22,22,23,23,24,24,25,25,26,26,29,29,30,30,31,31,32,32,33,33,34,34,35,35,36,36,37,37,38,38,39,39,40,40,41,41,42,42],"right_children":[2,4,6,8,10,12,14,16,18,-1,-1,20,22,24,26,-1,-1,-1,28,30,-1,32,34,36,38,40,42,-1,-1,44,46,48,50,52,54,56,58,60,62,64,66,68,70,-1,-1,-1,-1,-1,-1,-1,-1,-1,-1,-1,-1,-1,-1,-1,-1,-1,-1,-1,-1,-1,-1,-1,-1,-1,-1,-1,-1],"split_conditions":[2E0,1.75E2,9E0,3E0,1.36E2,1.2E1,8.3E1,3E0,3E0,9.368506E-2,-3.723566E-2,1.36E2,2E0,1E1,7E0,1.5848046E-2,-6.013863E-2,-5.1789124E-2,4E0,2.6E1,-5.327316E-2,5E0,2.2E1,6.6E1,1.32E2,5.6E1,7.8E1,8.308539E-2,9.495851E-3,7.8E1,1.58E2,6.7E1,5E0,9.8E1,7E1,1.86E2,1.31E2,5.9E1,6.4E1,7E0,1.62E2,1.12E2,7.8E1,-5.689775E-2,8.714974E-2,9.4391465E-2,2.7374465E-2,1.0063439E-1,-3.2872275E-2,-5.1259678E-2,6.7754455E-2,5.0459415E-2,-2.8730739E-2,1.2062436E-1,-1.6505504E-2,-5.8540262E-2,5.3570367E-2,9.071327E-2,-3.7185404E-2,-4.7924347E-2,7.6225325E-2,1.0675378E-1,-4.1352965E-2,-5.447603E-2,9.0406045E-2,1.031276E-1,-3.1002378E-2,-3.998554E-2,3.9902877E-2,-3.406426E-2,8.870846E-2],"split_indices":[10993,3908,5394,10992,3508,8084,13231,12987,2414,0,0,14925,152,10605,13423,0,0,0,1297,9037,0,13915,15596,5202,5966,9535,15936,0,0,4428,6759,6358,10751,8379,9742,11112,8209,8577,3554,1284,10683,15152,4701,0,0,0,0,0,0,0,0,0,0,0,0,0,0,0,0,0,0,0,0,0,0,0,0,0,0,0,0],"split_type":[0,0,0,0,0,0,0,0,0,0,0,0,0,0,0,0,0,0,0,0,0,0,0,0,0,0,0,0,0,0,0,0,0,0,0,0,0,0,0,0,0,0,0,0,0,0,0,0,0,0,0,0,0,0,0,0,0,0,0,0,0,0,0,0,0,0,0,0,0,0,0],"sum_hessian":[1.0375596E3,1.6738124E2,8.701783E2,1.6247092E2,4.9103346E0,4.226205E2,4.475578E2,1.5445502E2,8.015898E0,3.3823957E0,1.5279388E0,2.1368604E2,2.089345E2,2.9236057E2,1.551972E2,1.0139098E0,1.534411E2,5.000512E0,3.0153854E0,2.0879588E2,4.890156E0,7.887465E1,1.3005984E2,3.721077E1,2.5514981E2,4.519291E1,1.100043E2,1.9116669E0,1.1037185E0,8.482209E0,2.0031367E2,2.1879864E1,5.6994785E1,9.724114E1,3.2818703E1,1.3284152E1,2.3926617E1,2.4750049E2,7.6493306E0,7.467704E0,3.7725204E1,8.4318794E1,2.5685507E1,5.5529294E0,2.92928E0,1.8154964E2,1.8764034E1,1.2954365E1,8.925499E0,5.11672E1,5.827587E0,8.078061E1,1.6460531E1,2.9133562E1,3.6851408E0,1.21205015E1,1.1636505E0,1.9551964E1,4.374652E0,2.435235E2,3.9769814E0,5.713426E0,1.9359043E0,6.184094E0,1.2836101E0,3.4147278E1,3.5779254E0,6.7747375E1,1.6571417E1,4.326052E0,2.1359453E1],"tree_param":{"num_deleted":"0","num_feature":"16384","num_nodes":"71","size_leaf_vector":"1"}},{"base_weights":[-2.4444443E-1,-4.514875E-1,6.896659E-1,6.416255E-1,-5.657805E-1,7.495693E-1,-5.489024E-2,7.403217E-1,-3.9746115E-1,-5.846919E-1,8.438593E-1,8.7105125E-1,2.5406083E-1,8.177048E-1,-3.4243742E-1,1.7960457E-2,-5.2650627E-2,-5.9116364E-1,8.539043E-2,-3.3399004E-2,1.0545992E-1,9.3317413E-1,1.1958315E-1,-2.4390756E-1,7.239079E-1,8.856008E-1,-4.7200527E-2,8.9890165E-3,-4.823182E-2,8.3763145E-2,-5.9760404E-1,-4.6750363E-2,9.67235E-1,7.594876E-2,-3.2882142E-1,8.151367E-2,-4.8373002E-1,9.471154E-1,-4.5700748E-2,7.6411054E-3,1.0161159E-1,5.32746E-2,-6.014334E-2,9.934007E-2,-4.28037E-2,3.9813276E-2,-5.575909E-2,4.0796917E-2,-6.032691E-2,1.06060445E-1,-3.9765625E-3],"categories":[],"categories_nodes":[],"categories_segments":[],"categories_sizes":[],"default_left":[0,0,0,0,0,0,0,0,0,0,0,0,0,0,0,0,0,0,0,0,0,0,0,0,0,0,0,0,0,0,0,0,0,0,0,0,0,0,0,0,0,0,0,0,0,0,0,0,0,0,0],"id":22,"left_children":[1,3,5,7,9,11,-1,13,15,17,19,21,23,25,27,-1,-1,29,-1,-1,-1,31,33,35,37,39,-1,-1,-1,-1,41,-1,43,-1,45,-1,47,49,-1,-1,-1,-1,-1,-1,-1,-1,-1,-1,-1,-1,-1],"loss_changes":[1.7800406E2,9.439992E1,1.2808777E1,7.6491833E0,1.8673447E1,9.3983E0,0E0,5.7970695E0,6.06287E-1,6.775528E0,2.694744E0,5.8606033E0,7.8687153E0,5.825142E0,3.5158426E-1,0E0,0E0,6.6760864E0,0E0,0E0,0E0,6.082466E0,3.3817105E0,4.6380334E0,4.958151E0,6.1543503E0,0E0,0E0,0E0,0E0,3.2147827E0,0E0,4.643318E0,0E0,1.4053888E0,0E0,1.7651937E0,1.6957912E0,0E0,0E0,0E0,0E0,0E0,0E0,0E0,0E0,0E0,0E0,0E0,0E0,0E0],"parents":[2147483647,0,0,1,1,2,2,3,3,4,4,5,5,7,7,8,8,9,9,10,10,11,11,12,12,13,13,14,14,17,17,21,21,22,22,23,23,24,24,25,25,30,30,32,32,34,34,36,36,37,37],"right_children":[2,4,6,8,10,12,-1,14,16,18,20,22,24,26,28,-1,-1,30,-1,-1,-1,32,34,36,38,40,-1,-1,-1,-1,42,-1,44,-1,46,-1,48,50,-1,-1,-1,-1,-1,-1,-1,-1,-1,-1,-1,-1,-1],"split_conditions":[1E0,2E0,7.4E1,2E0,4E0,9.6E1,-5.489024E-2,1.39E2,5.3E1,2.08E2,6.9E1,1.41E2,1.04E2,1.78E2,9.7E1,1.7960457E-2,-5.2650627E-2,2E0,8.539043E-2,-3.3399004E-2,1.0545992E-1,1.7E1,5.4E1,6.1E1,1.3E2,5.1E1,-4.7200527E-2,8.9890165E-3,-4.823182E-2,8.3763145E-2,1E0,-4.6750363E-2,6.9E1,7.594876E-2,6.9E1,8.151367E-2,3E1,1.32E2,-4.5700748E-2,7.6411054E-3,1.0161159E-1,5.32746E-2,-6.014334E-2,9.934007E-2,-4.28037E-2,3.9813276E-2,-5.575909E-2,4.0796917E-2,-6.032691E-2,1.06060445E-1,-3.9765625E-3],"split_indices":[9217,1174,3085,12284,16,1080,0,8031,4003,14899,5078,15541,7910,4153,2875,0,0,2727,0,0,0,10180,15301,4941,2349,11947,0,0,0,0,13971,0,14216,0,4176,0,8039,7738,0,0,0,0,0,0,0,0,0,0,0,0,0],"split_type":[0,0,0,0,0,0,0,0,0,0,0,0,0,0,0,0,0,0,0,0,0,0,0,0,0,0,0,0,0,0,0,0,0,0,0,0,0,0,0,0,0,0,0,0,0,0,0,0,0,0,0],"sum_hessian":[9.17778E2,7.516856E2,1.6609245E2,7.071777E1,6.8096783E2,1.5880658E2,7.285876E0,6.484599E1,5.8717785E0,6.725305E2,8.437276E0,1.26929794E2,3.1876787E1,6.0749146E1,4.09685E0,1.0014925E0,4.8702865E0,6.7010504E2,2.425508E0,1.1917276E0,7.2455482E0,1.1701456E2,9.915236E0,1.5708734E1,1.6168053E1,5.8008648E1,2.7404964E0,1.0888712E0,3.0079787E0,2.4278586E0,6.676772E2,2.475836E0,1.1453872E2,3.7994306E0,6.115806E0,2.4575214E0,1.3251212E1,1.3764396E1,2.4036582E0,8.276997E0,4.973165E1,1.7879467E0,6.658892E2,1.1271303E2,1.8256906E0,1.2867178E0,4.829088E0,1.2812095E0,1.1970002E1,1.2277777E1,1.486619E0],"tree_param":{"num_deleted":"0","num_feature":"16384","num_nodes":"51","size_leaf_vector":"1"}},{"base_weights":[7.077939E-2,-3.883056E-1,5.4013777E-1,-4.5217478E-1,6.744752E-1,6.9642776E-1,-5.0572944E-1,-5.4746866E-1,-7.126184E-2,-5.2154977E-2,9.148389E-1,-1.2616213E-1,8.266106E-1,-5.8404833E-1,6.660369E-1,-5.601588E-1,4.6395442E-1,6.786045E-1,-3.8608378E-1,1.0345047E-1,-4.1989498E-2,-3.2978272E-1,6.9272166E-1,8.6580634E-1,-5.1054496E-1,1.6853854E-2,-5.9901424E-2,8.707209E-2,4.900832E-3,-5.7738304E-1,1.0738799E-1,-3.586791E-2,8.566752E-2,-5.1916923E-2,9.68966E-1,-5.0043815E-1,6.557462E-1,-4.797667E-1,3.2307053E-1,-4.462399E-2,1.05045296E-1,9.007464E-1,-2.3641978E-1,-5.8113284E-2,8.95648E-3,1.5828485E-2,-5.8669426E-2,-5.252731E-2,7.917793E-2,-4.0810544E-2,1.0798248E-1,6.393963E-2,-5.5590052E-2,-3.7335508E-2,9.890496E-2,4.6730556E-2,-5.609579E-2,9.648329E-2,-3.675158E-2,4.194237E-2,9.774583E-2,-5.8515847E-2,8.100831E-2],"categories":[],"categories_nodes":[],"categories_segments":[],"categories_sizes":[],"default_left":[0,0,0,0,0,0,0,0,0,0,0,0,0,0,0,0,0,0,0,0,0,0,0,0,0,0,0,0,0,0,0,0,0,0,0,0,0,0,0,0,0,0,0,0,0,0,0,0,0,0,0,0,0,0,0,0,0,0,0,0,0,0,0],"id":23,"left_children":[1,3,5,7,9,11,13,15,17,-1,19,21,23,25,27,29,31,33,35,-1,-1,37,39,41,43,-1,-1,-1,-1,45,47,-1,-1,-1,49,51,53,55,57,-1,-1,59,61,-1,-1,-1,-1,-1,-1,-1,-1,-1,-1,-1,-1,-1,-1,-1,-1,-1,-1,-1,-1],"loss_changes":[2.2037189E2,3.5405846E1,8.300351E1,1.7689049E1,9.019926E0,4.7257324E1,6.4749737E0,5.2721405E0,2.3605581E1,0E0,4.444441E0,1.0404955E1,2.0373444E1,8.070965E-1,5.410671E-1,4.501671E0,2.047275E0,1.07980995E1,8.701258E0,0E0,0E0,5.00733E0,5.552124E0,1.4455933E1,5.374582E-1,0E0,0E0,0E0,0E0,2.6723557E0,4.986309E0,0E0,0E0,0E0,4.1311913E0,4.3948593E0,2.9020257E0,3.391714E0,4.7224207E0,0E0,0E0,1.2833588E1,4.9102283E0,0E0,0E0,0E0,0E0,0E0,0E0,0E0,0E0,0E0,0E0,0E0,0E0,0E0,0E0,0E0,0E0,0E0,0E0,0E0,0E0],"parents":[2147483647,0,0,1,1,2,2,3,3,4,4,5,5,6,6,7,7,8,8,10,10,11,11,12,12,13,13,14,14,15,15,16,16,17,17,18,18,21,21,22,22,23,23,24,24,29,29,30,30,34,34,35,35,36,36,37,37,38,38,41,41,42,42],"right_children":[2,4,6,8,10,12,14,16,18,-1,20,22,24,26,28,30,32,34,36,-1,-1,38,40,42,44,-1,-1,-1,-1,46,48,-1,-1,-1,50,52,54,56,58,-1,-1,60,62,-1,-1,-1,-1,-1,-1,-1,-1,-1,-1,-1,-1,-1,-1,-1,-1,-1,-1,-1,-1],"split_conditions":[5E0,1.6E1,2E0,7.2E1,3.3E1,9E0,1.03E2,6E0,6E0,-5.2154977E-2,1.02E2,1.09E2,1.15E2,2.6E1,6.4E1,1.29E2,5E0,3E0,6E0,1.0345047E-1,-4.1989498E-2,7.9E1,7E0,1.04E2,9E0,1.6853854E-2,-5.9901424E-2,8.707209E-2,4.900832E-3,7E0,1.09E2,-3.586791E-2,8.566752E-2,-5.1916923E-2,6E0,3.7E1,6.5E1,3.3E1,7.4E1,-4.462399E-2,1.05045296E-1,8E0,1.1E1,-5.8113284E-2,8.95648E-3,1.5828485E-2,-5.8669426E-2,-5.252731E-2,7.917793E-2,-4.0810544E-2,1.0798248E-1,6.393963E-2,-5.5590052E-2,-3.7335508E-2,9.890496E-2,4.6730556E-2,-5.609579E-2,9.648329E-2,-3.675158E-2,4.194237E-2,9.774583E-2,-5.8515847E-2,8.100831E-2],"split_indices":[1772,13828,6017,3739,6257,6290,14075,1649,14501,0,10558,7614,8351,10974,310,3231,1639,1646,2937,0,0,14903,3232,6606,4483,0,0,0,0,5180,12769,0,0,0,11878,6111,3666,6971,5580,0,0,2210,13701,0,0,0,0,0,0,0,0,0,0,0,0,0,0,0,0,0,0,0,0],"split_type":[0,0,0,0,0,0,0,0,0,0,0,0,0,0,0,0,0,0,0,0,0,0,0,0,0,0,0,0,0,0,0,0,0,0,0,0,0,0,0,0,0,0,0,0,0,0,0,0,0,0,0,0,0,0,0,0,0,0,0,0,0,0,0],"sum_hessian":[1.02075073E3,5.1611005E2,5.0464066E2,4.87394E2,2.8716026E1,4.3932404E2,6.5316635E1,3.895117E2,9.788233E1,4.6095495E0,2.4106476E1,6.00316E1,3.7929242E2,6.169463E1,3.622002E0,3.8512576E2,4.38592E0,2.860154E1,6.928079E1,2.232946E1,1.7770157E0,4.8555298E1,1.1476302E1,3.688334E2,1.0459022E1,1.0028517E0,6.069178E1,2.4110456E0,1.2109562E0,3.7557025E2,9.555515E0,1.4452442E0,2.9406762E0,5.426912E0,2.3174627E1,6.2896713E1,6.384074E0,3.9699917E1,8.855382E0,2.6838658E0,8.792437E0,3.5767798E2,1.115544E1,9.386552E0,1.0724692E0,4.4941463E0,3.710761E2,5.086229E0,4.4692864E0,1.5268621E0,2.1647766E1,2.429914E0,6.04668E1,1.5324243E0,4.85165E0,2.7591844E0,3.694073E1,4.384107E0,4.471275E0,5.005833E1,3.0761963E2,8.697809E0,2.457631E0],"tree_param":{"num_deleted":"0","num_feature":"16384","num_nodes":"63","size_leaf_vector":"1"}},{"base_weights":[6.876771E-2,8.373966E-1,-1.7907855E-1,-5.5928584E-2,9.199002E-1,5.0216753E-2,-5.3959113E-1,9.333183E-1,-2.1280527E-1,-2.2672375E-1,3.6368817E-1,5.5436766E-1,-5.623335E-1,9.409514E-1,-3.423804E-2,-3.7309162E-2,6.56606E-3,1.7381933E-2,-4.2160362E-1,8.7978506E-1,-6.008863E-2,9.581255E-2,-3.7735082E-2,-2.7575076E-1,-5.9319896E-1,9.470142E-2,-2.1088207E-3,-1.8736489E-1,4.7763017E-1,1.08741894E-1,-4.4761026E-1,9.487118E-1,-3.942671E-1,3.145075E-1,-3.3393553E-1,-4.7646183E-1,4.4034755E-1,5.6488193E-3,-5.9617873E-2,3.0124456E-2,-4.615399E-2,-3.0825624E-2,8.02305E-2,1.8199498E-2,-4.951873E-2,9.954912E-2,-1.3613007E-2,-5.3041834E-2,1.1448433E-2,-2.1218212E-2,7.02974E-2,8.160826E-2,-4.292431E-2,2.8679773E-2,-5.84127E-2,8.974701E-2,-4.208898E-2],"categories":[],"categories_nodes":[],"categories_segments":[],"categories_sizes":[],"default_left":[0,0,0,0,0,0,0,0,0,0,0,0,0,0,0,0,0,0,0,0,0,0,0,0,0,0,0,0,0,0,0,0,0,0,0,0,0,0,0,0,0,0,0,0,0,0,0,0,0,0,0,0,0,0,0,0,0],"id":24,"left_children":[1,3,5,-1,7,9,11,13,15,17,19,21,23,25,-1,-1,-1,27,29,31,33,-1,-1,35,37,-1,-1,39,41,-1,43,45,47,49,51,53,55,-1,-1,-1,-1,-1,-1,-1,-1,-1,-1,-1,-1,-1,-1,-1,-1,-1,-1,-1,-1],"loss_changes":[1.9024434E2,2.8571457E1,6.2469513E1,0E0,3.6985931E0,4.0244705E1,7.619957E0,2.5401E0,1.811779E-1,1.1721431E1,4.7597466E1,2.8014872E0,2.386238E0,1.342102E0,0E0,0E0,0E0,1.0481253E1,5.861971E0,8.987129E0,1.2446243E1,0E0,0E0,4.5067673E0,5.357895E-1,0E0,0E0,1.0459781E1,8.98258E0,0E0,4.144659E0,4.872383E0,4.5833868E-1,1.0649684E1,8.02092E0,2.1259217E0,3.1590428E0,0E0,0E0,0E0,0E0,0E0,0E0,0E0,0E0,0E0,0E0,0E0,0E0,0E0,0E0,0E0,0E0,0E0,0E0,0E0,0E0],"parents":[2147483647,0,0,1,1,2,2,4,4,5,5,6,6,7,7,8,8,9,9,10,10,11,11,12,12,13,13,17,17,18,18,19,19,20,20,23,23,24,24,27,27,28,28,30,30,31,31,32,32,33,33,34,34,35,35,36,36],"right_children":[2,4,6,-1,8,10,12,14,16,18,20,22,24,26,-1,-1,-1,28,30,32,34,-1,-1,36,38,-1,-1,40,42,-1,44,46,48,50,52,54,56,-1,-1,-1,-1,-1,-1,-1,-1,-1,-1,-1,-1,-1,-1,-1,-1,-1,-1,-1,-1],"split_conditions":[1E0,2E0,5E0,-5.5928584E-2,5E0,3E0,7E0,1.62E2,4E0,6.3E1,1E0,5E0,5E0,5E0,-3.423804E-2,-3.7309162E-2,6.56606E-3,1.01E2,4E0,9.4E1,7.3E1,9.581255E-2,-3.7735082E-2,9E0,6E0,9.470142E-2,-2.1088207E-3,6.2E1,5.4E1,1.08741894E-1,2.4E1,2E0,8.3E1,6.6E1,3.4E1,4E1,8.1E1,5.6488193E-3,-5.9617873E-2,3.0124456E-2,-4.615399E-2,-3.0825624E-2,8.02305E-2,1.8199498E-2,-4.951873E-2,9.954912E-2,-1.3613007E-2,-5.3041834E-2,1.1448433E-2,-2.1218212E-2,7.02974E-2,8.160826E-2,-4.292431E-2,2.8679773E-2,-5.84127E-2,8.974701E-2,-4.208898E-2],"split_indices":[10736,3563,695,0,1131,768,10529,14259,472,3505,3713,684,1568,861,0,0,0,6246,13140,9169,10072,0,0,9213,10938,0,0,9679,7391,0,9664,7039,3129,12359,11597,12503,3358,0,0,0,0,0,0,0,0,0,0,0,0,0,0,0,0,0,0,0,0],"split_type":[0,0,0,0,0,0,0,0,0,0,0,0,0,0,0,0,0,0,0,0,0,0,0,0,0,0,0,0,0,0,0,0,0,0,0,0,0,0,0,0,0,0,0,0,0,0,0,0,0,0,0,0,0,0,0,0,0],"sum_hessian":[9.968613E2,2.4248384E2,7.543775E2,1.3202533E1,2.2928131E2,4.6162976E2,2.927477E2,2.26771E2,2.5103173E0,2.4524315E2,2.1638661E2,5.4859424E0,2.8726178E2,2.2568303E2,1.0879683E0,1.3775703E0,1.1327472E0,1.09275696E2,1.3596745E2,9.708072E1,1.19305885E2,3.8075902E0,1.678352E0,2.8896282E1,2.583655E2,2.2428522E2,1.3978099E0,7.604091E1,3.3234787E1,1.6121142E0,1.3435535E2,9.234042E1,4.740299E0,5.0321903E1,6.8983986E1,2.2831589E1,6.064693E0,1.0975932E0,2.572679E2,2.729663E1,4.874428E1,9.73104E0,2.3503746E1,9.240957E0,1.2511439E2,8.860218E1,3.7382452E0,3.7059345E0,1.0343646E0,2.1553324E1,2.876858E1,4.700713E0,6.428327E1,2.6167982E0,2.021479E1,3.9343636E0,2.1303294E0],"tree_param":{"num_deleted":"0","num_feature":"16384","num_nodes":"57","size_leaf_vector":"1"}},{"base_weights":[7.2826065E-2,-5.2233684E-1,1.8243091E-1,-5.583262E-1,4.9698952E-1,5.118013E-1,-1.394972E-1,